|--- model_ Focus <= 0.50
|   |--- mileage <= -0.45
|   |   |--- engineSize <= 1.65
|   |   |   |--- year <= 0.60
|   |   |   |   |--- year <= -0.34
|   |   |   |   |   |--- transmission_Manual <= 0.50
|   |   |   |   |   |   |--- year <= -0.80
|   |   |   |   |   |   |   |--- mileage <= -0.87
|   |   |   |   |   |   |   |   |--- value: [20495.00]
|   |   |   |   |   |   |   |--- mileage >  -0.87
|   |   |   |   |   |   |   |   |--- mileage <= -0.49
|   |   |   |   |   |   |   |   |   |--- engineSize <= 0.28
|   |   |   |   |   |   |   |   |   |   |--- value: [18595.00]
|   |   |   |   |   |   |   |   |   |--- engineSize >  0.28
|   |   |   |   |   |   |   |   |   |   |--- value: [17595.25]
|   |   |   |   |   |   |   |   |--- mileage >  -0.49
|   |   |   |   |   |   |   |   |   |--- mileage <= -0.47
|   |   |   |   |   |   |   |   |   |   |--- value: [19990.00]
|   |   |   |   |   |   |   |   |   |--- mileage >  -0.47
|   |   |   |   |   |   |   |   |   |   |--- value: [19100.00]
|   |   |   |   |   |   |--- year >  -0.80
|   |   |   |   |   |   |   |--- mileage <= -0.72
|   |   |   |   |   |   |   |   |--- engineSize <= 0.28
|   |   |   |   |   |   |   |   |   |--- value: [17998.00]
|   |   |   |   |   |   |   |   |--- engineSize >  0.28
|   |   |   |   |   |   |   |   |   |--- mileage <= -0.74
|   |   |   |   |   |   |   |   |   |   |--- value: [19766.00]
|   |   |   |   |   |   |   |   |   |--- mileage >  -0.74
|   |   |   |   |   |   |   |   |   |   |--- value: [18799.00]
|   |   |   |   |   |   |   |--- mileage >  -0.72
|   |   |   |   |   |   |   |   |--- engineSize <= 0.28
|   |   |   |   |   |   |   |   |   |--- value: [17981.00]
|   |   |   |   |   |   |   |   |--- engineSize >  0.28
|   |   |   |   |   |   |   |   |   |--- mileage <= -0.58
|   |   |   |   |   |   |   |   |   |   |--- value: [22759.50]
|   |   |   |   |   |   |   |   |   |--- mileage >  -0.58
|   |   |   |   |   |   |   |   |   |   |--- value: [21059.00]
|   |   |   |   |   |--- transmission_Manual >  0.50
|   |   |   |   |   |   |--- mileage <= -0.62
|   |   |   |   |   |   |   |--- value: [18995.00]
|   |   |   |   |   |   |--- mileage >  -0.62
|   |   |   |   |   |   |   |--- engineSize <= 0.38
|   |   |   |   |   |   |   |   |--- mileage <= -0.55
|   |   |   |   |   |   |   |   |   |--- value: [15900.00]
|   |   |   |   |   |   |   |   |--- mileage >  -0.55
|   |   |   |   |   |   |   |   |   |--- value: [16020.00]
|   |   |   |   |   |   |   |--- engineSize >  0.38
|   |   |   |   |   |   |   |   |--- mileage <= -0.56
|   |   |   |   |   |   |   |   |   |--- value: [15391.00]
|   |   |   |   |   |   |   |   |--- mileage >  -0.56
|   |   |   |   |   |   |   |   |   |--- value: [14499.00]
|   |   |   |   |--- year >  -0.34
|   |   |   |   |   |--- engineSize <= 0.28
|   |   |   |   |   |   |--- engineSize <= -0.17
|   |   |   |   |   |   |   |--- mileage <= -0.48
|   |   |   |   |   |   |   |   |--- mileage <= -0.48
|   |   |   |   |   |   |   |   |   |--- mileage <= -0.95
|   |   |   |   |   |   |   |   |   |   |--- value: [24985.00]
|   |   |   |   |   |   |   |   |   |--- mileage >  -0.95
|   |   |   |   |   |   |   |   |   |   |--- value: [23082.46]
|   |   |   |   |   |   |   |   |--- mileage >  -0.48
|   |   |   |   |   |   |   |   |   |--- value: [25990.00]
|   |   |   |   |   |   |   |--- mileage >  -0.48
|   |   |   |   |   |   |   |   |--- value: [19099.00]
|   |   |   |   |   |   |--- engineSize >  -0.17
|   |   |   |   |   |   |   |--- mileage <= -0.63
|   |   |   |   |   |   |   |   |--- mileage <= -0.75
|   |   |   |   |   |   |   |   |   |--- mileage <= -0.78
|   |   |   |   |   |   |   |   |   |   |--- value: [20051.00]
|   |   |   |   |   |   |   |   |   |--- mileage >  -0.78
|   |   |   |   |   |   |   |   |   |   |--- value: [18449.00]
|   |   |   |   |   |   |   |   |--- mileage >  -0.75
|   |   |   |   |   |   |   |   |   |--- mileage <= -0.74
|   |   |   |   |   |   |   |   |   |   |--- value: [25049.00]
|   |   |   |   |   |   |   |   |   |--- mileage >  -0.74
|   |   |   |   |   |   |   |   |   |   |--- value: [21430.00]
|   |   |   |   |   |   |   |--- mileage >  -0.63
|   |   |   |   |   |   |   |   |--- mileage <= -0.51
|   |   |   |   |   |   |   |   |   |--- value: [18390.00]
|   |   |   |   |   |   |   |   |--- mileage >  -0.51
|   |   |   |   |   |   |   |   |   |--- value: [16999.00]
|   |   |   |   |   |--- engineSize >  0.28
|   |   |   |   |   |   |--- year <= 0.13
|   |   |   |   |   |   |   |--- mileage <= -0.82
|   |   |   |   |   |   |   |   |--- transmission_Semi-Auto <= 0.50
|   |   |   |   |   |   |   |   |   |--- mileage <= -0.84
|   |   |   |   |   |   |   |   |   |   |--- value: [27995.00]
|   |   |   |   |   |   |   |   |   |--- mileage >  -0.84
|   |   |   |   |   |   |   |   |   |   |--- value: [26790.00]
|   |   |   |   |   |   |   |   |--- transmission_Semi-Auto >  0.50
|   |   |   |   |   |   |   |   |   |--- value: [25999.00]
|   |   |   |   |   |   |   |--- mileage >  -0.82
|   |   |   |   |   |   |   |   |--- transmission_Manual <= 0.50
|   |   |   |   |   |   |   |   |   |--- mileage <= -0.61
|   |   |   |   |   |   |   |   |   |   |--- value: [22145.33]
|   |   |   |   |   |   |   |   |   |--- mileage >  -0.61
|   |   |   |   |   |   |   |   |   |   |--- value: [23268.72]
|   |   |   |   |   |   |   |   |--- transmission_Manual >  0.50
|   |   |   |   |   |   |   |   |   |--- mileage <= -0.65
|   |   |   |   |   |   |   |   |   |   |--- value: [20981.00]
|   |   |   |   |   |   |   |   |   |--- mileage >  -0.65
|   |   |   |   |   |   |   |   |   |   |--- value: [18250.00]
|   |   |   |   |   |   |--- year >  0.13
|   |   |   |   |   |   |   |--- engineSize <= 0.74
|   |   |   |   |   |   |   |   |--- fuelType_Petrol <= 0.50
|   |   |   |   |   |   |   |   |   |--- mileage <= -0.48
|   |   |   |   |   |   |   |   |   |   |--- value: [27567.83]
|   |   |   |   |   |   |   |   |   |--- mileage >  -0.48
|   |   |   |   |   |   |   |   |   |   |--- value: [22144.50]
|   |   |   |   |   |   |   |   |--- fuelType_Petrol >  0.50
|   |   |   |   |   |   |   |   |   |--- mileage <= -0.58
|   |   |   |   |   |   |   |   |   |   |--- value: [25738.80]
|   |   |   |   |   |   |   |   |   |--- mileage >  -0.58
|   |   |   |   |   |   |   |   |   |   |--- value: [21448.50]
|   |   |   |   |   |   |   |--- engineSize >  0.74
|   |   |   |   |   |   |   |   |--- mileage <= -0.55
|   |   |   |   |   |   |   |   |   |--- mileage <= -0.61
|   |   |   |   |   |   |   |   |   |   |--- value: [23980.30]
|   |   |   |   |   |   |   |   |   |--- mileage >  -0.61
|   |   |   |   |   |   |   |   |   |   |--- value: [21768.29]
|   |   |   |   |   |   |   |   |--- mileage >  -0.55
|   |   |   |   |   |   |   |   |   |--- mileage <= -0.52
|   |   |   |   |   |   |   |   |   |   |--- value: [25510.14]
|   |   |   |   |   |   |   |   |   |--- mileage >  -0.52
|   |   |   |   |   |   |   |   |   |   |--- value: [23712.90]
|   |   |   |--- year >  0.60
|   |   |   |   |--- engineSize <= 0.28
|   |   |   |   |   |--- mileage <= -0.82
|   |   |   |   |   |   |--- transmission_Manual <= 0.50
|   |   |   |   |   |   |   |--- year <= 1.06
|   |   |   |   |   |   |   |   |--- mileage <= -1.00
|   |   |   |   |   |   |   |   |   |--- mileage <= -1.06
|   |   |   |   |   |   |   |   |   |   |--- value: [31782.45]
|   |   |   |   |   |   |   |   |   |--- mileage >  -1.06
|   |   |   |   |   |   |   |   |   |   |--- value: [29676.97]
|   |   |   |   |   |   |   |   |--- mileage >  -1.00
|   |   |   |   |   |   |   |   |   |--- mileage <= -0.91
|   |   |   |   |   |   |   |   |   |   |--- value: [28672.16]
|   |   |   |   |   |   |   |   |   |--- mileage >  -0.91
|   |   |   |   |   |   |   |   |   |   |--- value: [27354.65]
|   |   |   |   |   |   |   |--- year >  1.06
|   |   |   |   |   |   |   |   |--- fuelType_Petrol <= 0.50
|   |   |   |   |   |   |   |   |   |--- mileage <= -1.00
|   |   |   |   |   |   |   |   |   |   |--- value: [32659.00]
|   |   |   |   |   |   |   |   |   |--- mileage >  -1.00
|   |   |   |   |   |   |   |   |   |   |--- value: [29601.67]
|   |   |   |   |   |   |   |   |--- fuelType_Petrol >  0.50
|   |   |   |   |   |   |   |   |   |--- mileage <= -0.84
|   |   |   |   |   |   |   |   |   |   |--- value: [33999.11]
|   |   |   |   |   |   |   |   |   |--- mileage >  -0.84
|   |   |   |   |   |   |   |   |   |   |--- value: [38995.00]
|   |   |   |   |   |   |--- transmission_Manual >  0.50
|   |   |   |   |   |   |   |--- engineSize <= -0.17
|   |   |   |   |   |   |   |   |--- value: [12900.00]
|   |   |   |   |   |   |   |--- engineSize >  -0.17
|   |   |   |   |   |   |   |   |--- mileage <= -1.02
|   |   |   |   |   |   |   |   |   |--- mileage <= -1.06
|   |   |   |   |   |   |   |   |   |   |--- value: [22980.00]
|   |   |   |   |   |   |   |   |   |--- mileage >  -1.06
|   |   |   |   |   |   |   |   |   |   |--- value: [26458.67]
|   |   |   |   |   |   |   |   |--- mileage >  -1.02
|   |   |   |   |   |   |   |   |   |--- mileage <= -1.00
|   |   |   |   |   |   |   |   |   |   |--- value: [23879.00]
|   |   |   |   |   |   |   |   |   |--- mileage >  -1.00
|   |   |   |   |   |   |   |   |   |   |--- value: [22875.20]
|   |   |   |   |   |--- mileage >  -0.82
|   |   |   |   |   |   |--- mileage <= -0.64
|   |   |   |   |   |   |   |--- mileage <= -0.82
|   |   |   |   |   |   |   |   |--- transmission_Semi-Auto <= 0.50
|   |   |   |   |   |   |   |   |   |--- mileage <= -0.82
|   |   |   |   |   |   |   |   |   |   |--- value: [21940.00]
|   |   |   |   |   |   |   |   |   |--- mileage >  -0.82
|   |   |   |   |   |   |   |   |   |   |--- value: [21749.00]
|   |   |   |   |   |   |   |   |--- transmission_Semi-Auto >  0.50
|   |   |   |   |   |   |   |   |   |--- mileage <= -0.82
|   |   |   |   |   |   |   |   |   |   |--- value: [23980.00]
|   |   |   |   |   |   |   |   |   |--- mileage >  -0.82
|   |   |   |   |   |   |   |   |   |   |--- value: [24000.00]
|   |   |   |   |   |   |   |--- mileage >  -0.82
|   |   |   |   |   |   |   |   |--- transmission_Manual <= 0.50
|   |   |   |   |   |   |   |   |   |--- fuelType_Petrol <= 0.50
|   |   |   |   |   |   |   |   |   |   |--- value: [27734.69]
|   |   |   |   |   |   |   |   |   |--- fuelType_Petrol >  0.50
|   |   |   |   |   |   |   |   |   |   |--- value: [25974.46]
|   |   |   |   |   |   |   |   |--- transmission_Manual >  0.50
|   |   |   |   |   |   |   |   |   |--- fuelType_Petrol <= 0.50
|   |   |   |   |   |   |   |   |   |   |--- value: [22980.00]
|   |   |   |   |   |   |   |   |   |--- fuelType_Petrol >  0.50
|   |   |   |   |   |   |   |   |   |   |--- value: [21795.00]
|   |   |   |   |   |   |--- mileage >  -0.64
|   |   |   |   |   |   |   |--- transmission_Semi-Auto <= 0.50
|   |   |   |   |   |   |   |   |--- mileage <= -0.58
|   |   |   |   |   |   |   |   |   |--- mileage <= -0.62
|   |   |   |   |   |   |   |   |   |   |--- value: [23800.00]
|   |   |   |   |   |   |   |   |   |--- mileage >  -0.62
|   |   |   |   |   |   |   |   |   |   |--- value: [20565.67]
|   |   |   |   |   |   |   |   |--- mileage >  -0.58
|   |   |   |   |   |   |   |   |   |--- mileage <= -0.50
|   |   |   |   |   |   |   |   |   |   |--- value: [24865.64]
|   |   |   |   |   |   |   |   |   |--- mileage >  -0.50
|   |   |   |   |   |   |   |   |   |   |--- value: [23253.83]
|   |   |   |   |   |   |   |--- transmission_Semi-Auto >  0.50
|   |   |   |   |   |   |   |   |--- mileage <= -0.53
|   |   |   |   |   |   |   |   |   |--- mileage <= -0.53
|   |   |   |   |   |   |   |   |   |   |--- value: [25254.38]
|   |   |   |   |   |   |   |   |   |--- mileage >  -0.53
|   |   |   |   |   |   |   |   |   |   |--- value: [35068.00]
|   |   |   |   |   |   |   |   |--- mileage >  -0.53
|   |   |   |   |   |   |   |   |   |--- mileage <= -0.51
|   |   |   |   |   |   |   |   |   |   |--- value: [23280.22]
|   |   |   |   |   |   |   |   |   |--- mileage >  -0.51
|   |   |   |   |   |   |   |   |   |   |--- value: [25177.21]
|   |   |   |   |--- engineSize >  0.28
|   |   |   |   |   |--- mileage <= -0.81
|   |   |   |   |   |   |--- year <= 1.06
|   |   |   |   |   |   |   |--- fuelType_Hybrid <= 0.50
|   |   |   |   |   |   |   |   |--- mileage <= -0.92
|   |   |   |   |   |   |   |   |   |--- engineSize <= 0.74
|   |   |   |   |   |   |   |   |   |   |--- value: [31839.51]
|   |   |   |   |   |   |   |   |   |--- engineSize >  0.74
|   |   |   |   |   |   |   |   |   |   |--- value: [25495.00]
|   |   |   |   |   |   |   |   |--- mileage >  -0.92
|   |   |   |   |   |   |   |   |   |--- mileage <= -0.81
|   |   |   |   |   |   |   |   |   |   |--- value: [30422.67]
|   |   |   |   |   |   |   |   |   |--- mileage >  -0.81
|   |   |   |   |   |   |   |   |   |   |--- value: [33166.83]
|   |   |   |   |   |   |   |--- fuelType_Hybrid >  0.50
|   |   |   |   |   |   |   |   |--- value: [43990.00]
|   |   |   |   |   |   |--- year >  1.06
|   |   |   |   |   |   |   |--- fuelType_Hybrid <= 0.50
|   |   |   |   |   |   |   |   |--- mileage <= -1.05
|   |   |   |   |   |   |   |   |   |--- mileage <= -1.05
|   |   |   |   |   |   |   |   |   |   |--- value: [32197.84]
|   |   |   |   |   |   |   |   |   |--- mileage >  -1.05
|   |   |   |   |   |   |   |   |   |   |--- value: [33400.00]
|   |   |   |   |   |   |   |   |--- mileage >  -1.05
|   |   |   |   |   |   |   |   |   |--- mileage <= -1.04
|   |   |   |   |   |   |   |   |   |   |--- value: [43495.00]
|   |   |   |   |   |   |   |   |   |--- mileage >  -1.04
|   |   |   |   |   |   |   |   |   |   |--- value: [34839.06]
|   |   |   |   |   |   |   |--- fuelType_Hybrid >  0.50
|   |   |   |   |   |   |   |   |--- mileage <= -0.87
|   |   |   |   |   |   |   |   |   |--- mileage <= -0.97
|   |   |   |   |   |   |   |   |   |   |--- value: [41995.00]
|   |   |   |   |   |   |   |   |   |--- mileage >  -0.97
|   |   |   |   |   |   |   |   |   |   |--- value: [39998.00]
|   |   |   |   |   |   |   |   |--- mileage >  -0.87
|   |   |   |   |   |   |   |   |   |--- value: [46800.00]
|   |   |   |   |   |--- mileage >  -0.81
|   |   |   |   |   |   |--- mileage <= -0.63
|   |   |   |   |   |   |   |--- engineSize <= 0.74
|   |   |   |   |   |   |   |   |--- mileage <= -0.71
|   |   |   |   |   |   |   |   |   |--- mileage <= -0.72
|   |   |   |   |   |   |   |   |   |   |--- value: [29784.19]
|   |   |   |   |   |   |   |   |   |--- mileage >  -0.72
|   |   |   |   |   |   |   |   |   |   |--- value: [32225.86]
|   |   |   |   |   |   |   |   |--- mileage >  -0.71
|   |   |   |   |   |   |   |   |   |--- mileage <= -0.71
|   |   |   |   |   |   |   |   |   |   |--- value: [26359.75]
|   |   |   |   |   |   |   |   |   |--- mileage >  -0.71
|   |   |   |   |   |   |   |   |   |   |--- value: [29292.22]
|   |   |   |   |   |   |   |--- engineSize >  0.74
|   |   |   |   |   |   |   |   |--- transmission_Semi-Auto <= 0.50
|   |   |   |   |   |   |   |   |   |--- mileage <= -0.80
|   |   |   |   |   |   |   |   |   |   |--- value: [24999.00]
|   |   |   |   |   |   |   |   |   |--- mileage >  -0.80
|   |   |   |   |   |   |   |   |   |   |--- value: [28587.50]
|   |   |   |   |   |   |   |   |--- transmission_Semi-Auto >  0.50
|   |   |   |   |   |   |   |   |   |--- value: [24490.00]
|   |   |   |   |   |   |--- mileage >  -0.63
|   |   |   |   |   |   |   |--- engineSize <= 0.74
|   |   |   |   |   |   |   |   |--- mileage <= -0.49
|   |   |   |   |   |   |   |   |   |--- mileage <= -0.63
|   |   |   |   |   |   |   |   |   |   |--- value: [24299.00]
|   |   |   |   |   |   |   |   |   |--- mileage >  -0.63
|   |   |   |   |   |   |   |   |   |   |--- value: [27835.41]
|   |   |   |   |   |   |   |   |--- mileage >  -0.49
|   |   |   |   |   |   |   |   |   |--- mileage <= -0.45
|   |   |   |   |   |   |   |   |   |   |--- value: [24921.29]
|   |   |   |   |   |   |   |   |   |--- mileage >  -0.45
|   |   |   |   |   |   |   |   |   |   |--- value: [27508.00]
|   |   |   |   |   |   |   |--- engineSize >  0.74
|   |   |   |   |   |   |   |   |--- mileage <= -0.51
|   |   |   |   |   |   |   |   |   |--- mileage <= -0.55
|   |   |   |   |   |   |   |   |   |   |--- value: [23148.67]
|   |   |   |   |   |   |   |   |   |--- mileage >  -0.55
|   |   |   |   |   |   |   |   |   |   |--- value: [20682.00]
|   |   |   |   |   |   |   |   |--- mileage >  -0.51
|   |   |   |   |   |   |   |   |   |--- value: [24498.00]
|   |   |--- engineSize >  1.65
|   |   |   |--- engineSize <= 3.38
|   |   |   |   |--- year <= 0.60
|   |   |   |   |   |--- mileage <= -0.63
|   |   |   |   |   |   |--- mileage <= -0.75
|   |   |   |   |   |   |   |--- mileage <= -0.82
|   |   |   |   |   |   |   |   |--- transmission_Semi-Auto <= 0.50
|   |   |   |   |   |   |   |   |   |--- value: [38495.00]
|   |   |   |   |   |   |   |   |--- transmission_Semi-Auto >  0.50
|   |   |   |   |   |   |   |   |   |--- value: [37999.00]
|   |   |   |   |   |   |   |--- mileage >  -0.82
|   |   |   |   |   |   |   |   |--- year <= 0.13
|   |   |   |   |   |   |   |   |   |--- value: [36024.00]
|   |   |   |   |   |   |   |   |--- year >  0.13
|   |   |   |   |   |   |   |   |   |--- value: [36495.00]
|   |   |   |   |   |   |--- mileage >  -0.75
|   |   |   |   |   |   |   |--- transmission_Semi-Auto <= 0.50
|   |   |   |   |   |   |   |   |--- value: [39991.00]
|   |   |   |   |   |   |   |--- transmission_Semi-Auto >  0.50
|   |   |   |   |   |   |   |   |--- value: [39000.00]
|   |   |   |   |   |--- mileage >  -0.63
|   |   |   |   |   |   |--- mileage <= -0.60
|   |   |   |   |   |   |   |--- year <= 0.13
|   |   |   |   |   |   |   |   |--- value: [35149.00]
|   |   |   |   |   |   |   |--- year >  0.13
|   |   |   |   |   |   |   |   |--- value: [33890.00]
|   |   |   |   |   |   |--- mileage >  -0.60
|   |   |   |   |   |   |   |--- mileage <= -0.58
|   |   |   |   |   |   |   |   |--- value: [32000.00]
|   |   |   |   |   |   |   |--- mileage >  -0.58
|   |   |   |   |   |   |   |   |--- transmission_Semi-Auto <= 0.50
|   |   |   |   |   |   |   |   |   |--- value: [32995.00]
|   |   |   |   |   |   |   |   |--- transmission_Semi-Auto >  0.50
|   |   |   |   |   |   |   |   |   |--- value: [33000.00]
|   |   |   |   |--- year >  0.60
|   |   |   |   |   |--- mileage <= -0.97
|   |   |   |   |   |   |--- transmission_Semi-Auto <= 0.50
|   |   |   |   |   |   |   |--- mileage <= -0.99
|   |   |   |   |   |   |   |   |--- year <= 1.06
|   |   |   |   |   |   |   |   |   |--- mileage <= -1.02
|   |   |   |   |   |   |   |   |   |   |--- value: [38995.00]
|   |   |   |   |   |   |   |   |   |--- mileage >  -1.02
|   |   |   |   |   |   |   |   |   |   |--- value: [37990.00]
|   |   |   |   |   |   |   |   |--- year >  1.06
|   |   |   |   |   |   |   |   |   |--- value: [41900.00]
|   |   |   |   |   |   |   |--- mileage >  -0.99
|   |   |   |   |   |   |   |   |--- year <= 1.06
|   |   |   |   |   |   |   |   |   |--- mileage <= -0.98
|   |   |   |   |   |   |   |   |   |   |--- value: [44990.00]
|   |   |   |   |   |   |   |   |   |--- mileage >  -0.98
|   |   |   |   |   |   |   |   |   |   |--- value: [44987.00]
|   |   |   |   |   |   |   |   |--- year >  1.06
|   |   |   |   |   |   |   |   |   |--- value: [49990.00]
|   |   |   |   |   |   |--- transmission_Semi-Auto >  0.50
|   |   |   |   |   |   |   |--- year <= 1.06
|   |   |   |   |   |   |   |   |--- mileage <= -1.05
|   |   |   |   |   |   |   |   |   |--- mileage <= -1.06
|   |   |   |   |   |   |   |   |   |   |--- value: [42699.00]
|   |   |   |   |   |   |   |   |   |--- mileage >  -1.06
|   |   |   |   |   |   |   |   |   |   |--- value: [42995.00]
|   |   |   |   |   |   |   |   |--- mileage >  -1.05
|   |   |   |   |   |   |   |   |   |--- mileage <= -1.00
|   |   |   |   |   |   |   |   |   |   |--- value: [49386.00]
|   |   |   |   |   |   |   |   |   |--- mileage >  -1.00
|   |   |   |   |   |   |   |   |   |   |--- value: [45539.50]
|   |   |   |   |   |   |   |--- year >  1.06
|   |   |   |   |   |   |   |   |--- mileage <= -1.03
|   |   |   |   |   |   |   |   |   |--- value: [54000.00]
|   |   |   |   |   |   |   |   |--- mileage >  -1.03
|   |   |   |   |   |   |   |   |   |--- value: [53669.00]
|   |   |   |   |   |--- mileage >  -0.97
|   |   |   |   |   |   |--- mileage <= -0.94
|   |   |   |   |   |   |   |--- mileage <= -0.95
|   |   |   |   |   |   |   |   |--- value: [38596.00]
|   |   |   |   |   |   |   |--- mileage >  -0.95
|   |   |   |   |   |   |   |   |--- value: [35499.00]
|   |   |   |   |   |   |--- mileage >  -0.94
|   |   |   |   |   |   |   |--- mileage <= -0.92
|   |   |   |   |   |   |   |   |--- mileage <= -0.93
|   |   |   |   |   |   |   |   |   |--- value: [45980.00]
|   |   |   |   |   |   |   |   |--- mileage >  -0.93
|   |   |   |   |   |   |   |   |   |--- value: [46390.00]
|   |   |   |   |   |   |   |--- mileage >  -0.92
|   |   |   |   |   |   |   |   |--- mileage <= -0.71
|   |   |   |   |   |   |   |   |   |--- mileage <= -0.77
|   |   |   |   |   |   |   |   |   |   |--- value: [41632.72]
|   |   |   |   |   |   |   |   |   |--- mileage >  -0.77
|   |   |   |   |   |   |   |   |   |   |--- value: [38689.57]
|   |   |   |   |   |   |   |   |--- mileage >  -0.71
|   |   |   |   |   |   |   |   |   |--- mileage <= -0.68
|   |   |   |   |   |   |   |   |   |   |--- value: [47810.25]
|   |   |   |   |   |   |   |   |   |--- mileage >  -0.68
|   |   |   |   |   |   |   |   |   |   |--- value: [41308.67]
|   |   |   |--- engineSize >  3.38
|   |   |   |   |--- year <= 0.60
|   |   |   |   |   |--- mileage <= -0.50
|   |   |   |   |   |   |--- transmission_Semi-Auto <= 0.50
|   |   |   |   |   |   |   |--- year <= 0.13
|   |   |   |   |   |   |   |   |--- value: [42991.00]
|   |   |   |   |   |   |   |--- year >  0.13
|   |   |   |   |   |   |   |   |--- mileage <= -0.74
|   |   |   |   |   |   |   |   |   |--- value: [46900.00]
|   |   |   |   |   |   |   |   |--- mileage >  -0.74
|   |   |   |   |   |   |   |   |   |--- value: [47099.00]
|   |   |   |   |   |   |--- transmission_Semi-Auto >  0.50
|   |   |   |   |   |   |   |--- mileage <= -0.53
|   |   |   |   |   |   |   |   |--- year <= 0.13
|   |   |   |   |   |   |   |   |   |--- value: [41399.00]
|   |   |   |   |   |   |   |   |--- year >  0.13
|   |   |   |   |   |   |   |   |   |--- value: [42525.00]
|   |   |   |   |   |   |   |--- mileage >  -0.53
|   |   |   |   |   |   |   |   |--- value: [43750.00]
|   |   |   |   |   |--- mileage >  -0.50
|   |   |   |   |   |   |--- year <= 0.13
|   |   |   |   |   |   |   |--- mileage <= -0.48
|   |   |   |   |   |   |   |   |--- value: [39336.00]
|   |   |   |   |   |   |   |--- mileage >  -0.48
|   |   |   |   |   |   |   |   |--- value: [44520.00]
|   |   |   |   |   |   |--- year >  0.13
|   |   |   |   |   |   |   |--- value: [33690.00]
|   |   |   |   |--- year >  0.60
|   |   |   |   |   |--- mileage <= -0.85
|   |   |   |   |   |   |--- transmission_Semi-Auto <= 0.50
|   |   |   |   |   |   |   |--- mileage <= -1.02
|   |   |   |   |   |   |   |   |--- mileage <= -1.05
|   |   |   |   |   |   |   |   |   |--- mileage <= -1.06
|   |   |   |   |   |   |   |   |   |   |--- value: [61429.33]
|   |   |   |   |   |   |   |   |   |--- mileage >  -1.06
|   |   |   |   |   |   |   |   |   |   |--- value: [59950.00]
|   |   |   |   |   |   |   |   |--- mileage >  -1.05
|   |   |   |   |   |   |   |   |   |--- mileage <= -1.04
|   |   |   |   |   |   |   |   |   |   |--- value: [65717.50]
|   |   |   |   |   |   |   |   |   |--- mileage >  -1.04
|   |   |   |   |   |   |   |   |   |   |--- value: [67429.00]
|   |   |   |   |   |   |   |--- mileage >  -1.02
|   |   |   |   |   |   |   |   |--- mileage <= -0.98
|   |   |   |   |   |   |   |   |   |--- mileage <= -1.00
|   |   |   |   |   |   |   |   |   |   |--- value: [49280.00]
|   |   |   |   |   |   |   |   |   |--- mileage >  -1.00
|   |   |   |   |   |   |   |   |   |   |--- value: [54990.00]
|   |   |   |   |   |   |   |   |--- mileage >  -0.98
|   |   |   |   |   |   |   |   |   |--- year <= 1.06
|   |   |   |   |   |   |   |   |   |   |--- value: [60329.33]
|   |   |   |   |   |   |   |   |   |--- year >  1.06
|   |   |   |   |   |   |   |   |   |   |--- value: [68995.00]
|   |   |   |   |   |   |--- transmission_Semi-Auto >  0.50
|   |   |   |   |   |   |   |--- mileage <= -1.05
|   |   |   |   |   |   |   |   |--- mileage <= -1.06
|   |   |   |   |   |   |   |   |   |--- value: [57998.00]
|   |   |   |   |   |   |   |   |--- mileage >  -1.06
|   |   |   |   |   |   |   |   |   |--- value: [62199.00]
|   |   |   |   |   |   |   |--- mileage >  -1.05
|   |   |   |   |   |   |   |   |--- mileage <= -1.05
|   |   |   |   |   |   |   |   |   |--- value: [88995.00]
|   |   |   |   |   |   |   |   |--- mileage >  -1.05
|   |   |   |   |   |   |   |   |   |--- mileage <= -1.00
|   |   |   |   |   |   |   |   |   |   |--- value: [67755.75]
|   |   |   |   |   |   |   |   |   |--- mileage >  -1.00
|   |   |   |   |   |   |   |   |   |   |--- value: [65925.50]
|   |   |   |   |   |--- mileage >  -0.85
|   |   |   |   |   |   |--- mileage <= -0.60
|   |   |   |   |   |   |   |--- mileage <= -0.78
|   |   |   |   |   |   |   |   |--- mileage <= -0.81
|   |   |   |   |   |   |   |   |   |--- value: [52000.00]
|   |   |   |   |   |   |   |   |--- mileage >  -0.81
|   |   |   |   |   |   |   |   |   |--- value: [49780.00]
|   |   |   |   |   |   |   |--- mileage >  -0.78
|   |   |   |   |   |   |   |   |--- mileage <= -0.62
|   |   |   |   |   |   |   |   |   |--- mileage <= -0.67
|   |   |   |   |   |   |   |   |   |   |--- value: [61114.50]
|   |   |   |   |   |   |   |   |   |--- mileage >  -0.67
|   |   |   |   |   |   |   |   |   |   |--- value: [54980.00]
|   |   |   |   |   |   |   |   |--- mileage >  -0.62
|   |   |   |   |   |   |   |   |   |--- value: [66990.00]
|   |   |   |   |   |   |--- mileage >  -0.60
|   |   |   |   |   |   |   |--- value: [41750.00]
|   |--- mileage >  -0.45
|   |   |--- engineSize <= 2.20
|   |   |   |--- year <= -0.80
|   |   |   |   |--- year <= -1.74
|   |   |   |   |   |--- year <= -3.14
|   |   |   |   |   |   |--- year <= -4.54
|   |   |   |   |   |   |   |--- year <= -5.00
|   |   |   |   |   |   |   |   |--- mileage <= 4.29
|   |   |   |   |   |   |   |   |   |--- fuelType_Petrol <= 0.50
|   |   |   |   |   |   |   |   |   |   |--- value: [1395.00]
|   |   |   |   |   |   |   |   |   |--- fuelType_Petrol >  0.50
|   |   |   |   |   |   |   |   |   |   |--- value: [2840.00]
|   |   |   |   |   |   |   |   |--- mileage >  4.29
|   |   |   |   |   |   |   |   |   |--- year <= -7.57
|   |   |   |   |   |   |   |   |   |   |--- value: [1290.00]
|   |   |   |   |   |   |   |   |   |--- year >  -7.57
|   |   |   |   |   |   |   |   |   |   |--- value: [1656.67]
|   |   |   |   |   |   |   |--- year >  -5.00
|   |   |   |   |   |   |   |   |--- mileage <= 2.23
|   |   |   |   |   |   |   |   |   |--- value: [5995.00]
|   |   |   |   |   |   |   |   |--- mileage >  2.23
|   |   |   |   |   |   |   |   |   |--- mileage <= 3.85
|   |   |   |   |   |   |   |   |   |   |--- value: [1995.00]
|   |   |   |   |   |   |   |   |   |--- mileage >  3.85
|   |   |   |   |   |   |   |   |   |   |--- value: [3495.00]
|   |   |   |   |   |   |--- year >  -4.54
|   |   |   |   |   |   |   |--- mileage <= 3.35
|   |   |   |   |   |   |   |   |--- mileage <= 2.10
|   |   |   |   |   |   |   |   |   |--- mileage <= 1.91
|   |   |   |   |   |   |   |   |   |   |--- value: [7243.50]
|   |   |   |   |   |   |   |   |   |--- mileage >  1.91
|   |   |   |   |   |   |   |   |   |   |--- value: [7990.00]
|   |   |   |   |   |   |   |   |--- mileage >  2.10
|   |   |   |   |   |   |   |   |   |--- year <= -3.84
|   |   |   |   |   |   |   |   |   |   |--- value: [5884.67]
|   |   |   |   |   |   |   |   |   |--- year >  -3.84
|   |   |   |   |   |   |   |   |   |   |--- value: [6487.00]
|   |   |   |   |   |   |   |--- mileage >  3.35
|   |   |   |   |   |   |   |   |--- engineSize <= 0.10
|   |   |   |   |   |   |   |   |   |--- value: [4990.00]
|   |   |   |   |   |   |   |   |--- engineSize >  0.10
|   |   |   |   |   |   |   |   |   |--- mileage <= 3.89
|   |   |   |   |   |   |   |   |   |   |--- value: [4097.50]
|   |   |   |   |   |   |   |   |   |--- mileage >  3.89
|   |   |   |   |   |   |   |   |   |   |--- value: [4356.75]
|   |   |   |   |   |--- year >  -3.14
|   |   |   |   |   |   |--- mileage <= 0.75
|   |   |   |   |   |   |   |--- engineSize <= 0.38
|   |   |   |   |   |   |   |   |--- mileage <= 0.54
|   |   |   |   |   |   |   |   |   |--- mileage <= 0.25
|   |   |   |   |   |   |   |   |   |   |--- value: [11999.00]
|   |   |   |   |   |   |   |   |   |--- mileage >  0.25
|   |   |   |   |   |   |   |   |   |   |--- value: [11998.00]
|   |   |   |   |   |   |   |   |--- mileage >  0.54
|   |   |   |   |   |   |   |   |   |--- value: [11298.00]
|   |   |   |   |   |   |   |--- engineSize >  0.38
|   |   |   |   |   |   |   |   |--- mileage <= 0.51
|   |   |   |   |   |   |   |   |   |--- mileage <= 0.25
|   |   |   |   |   |   |   |   |   |   |--- value: [12999.00]
|   |   |   |   |   |   |   |   |   |--- mileage >  0.25
|   |   |   |   |   |   |   |   |   |   |--- value: [11998.00]
|   |   |   |   |   |   |   |   |--- mileage >  0.51
|   |   |   |   |   |   |   |   |   |--- value: [14000.00]
|   |   |   |   |   |   |--- mileage >  0.75
|   |   |   |   |   |   |   |--- mileage <= 2.59
|   |   |   |   |   |   |   |   |--- year <= -2.20
|   |   |   |   |   |   |   |   |   |--- mileage <= 1.64
|   |   |   |   |   |   |   |   |   |   |--- value: [9430.00]
|   |   |   |   |   |   |   |   |   |--- mileage >  1.64
|   |   |   |   |   |   |   |   |   |   |--- value: [8446.80]
|   |   |   |   |   |   |   |   |--- year >  -2.20
|   |   |   |   |   |   |   |   |   |--- mileage <= 2.24
|   |   |   |   |   |   |   |   |   |   |--- value: [10103.56]
|   |   |   |   |   |   |   |   |   |--- mileage >  2.24
|   |   |   |   |   |   |   |   |   |   |--- value: [9223.33]
|   |   |   |   |   |   |   |--- mileage >  2.59
|   |   |   |   |   |   |   |   |--- mileage <= 3.35
|   |   |   |   |   |   |   |   |   |--- mileage <= 3.12
|   |   |   |   |   |   |   |   |   |   |--- value: [7826.00]
|   |   |   |   |   |   |   |   |   |--- mileage >  3.12
|   |   |   |   |   |   |   |   |   |   |--- value: [9307.75]
|   |   |   |   |   |   |   |   |--- mileage >  3.35
|   |   |   |   |   |   |   |   |   |--- year <= -2.67
|   |   |   |   |   |   |   |   |   |   |--- value: [6995.00]
|   |   |   |   |   |   |   |   |   |--- year >  -2.67
|   |   |   |   |   |   |   |   |   |   |--- value: [7308.75]
|   |   |   |   |--- year >  -1.74
|   |   |   |   |   |--- mileage <= 0.83
|   |   |   |   |   |   |--- engineSize <= 0.28
|   |   |   |   |   |   |   |--- fuelType_Petrol <= 0.50
|   |   |   |   |   |   |   |   |--- mileage <= 0.05
|   |   |   |   |   |   |   |   |   |--- value: [17712.00]
|   |   |   |   |   |   |   |   |--- mileage >  0.05
|   |   |   |   |   |   |   |   |   |--- mileage <= 0.73
|   |   |   |   |   |   |   |   |   |   |--- value: [12966.00]
|   |   |   |   |   |   |   |   |   |--- mileage >  0.73
|   |   |   |   |   |   |   |   |   |   |--- value: [15995.00]
|   |   |   |   |   |   |   |--- fuelType_Petrol >  0.50
|   |   |   |   |   |   |   |   |--- year <= -1.27
|   |   |   |   |   |   |   |   |   |--- mileage <= 0.61
|   |   |   |   |   |   |   |   |   |   |--- value: [12422.25]
|   |   |   |   |   |   |   |   |   |--- mileage >  0.61
|   |   |   |   |   |   |   |   |   |   |--- value: [13295.00]
|   |   |   |   |   |   |   |   |--- year >  -1.27
|   |   |   |   |   |   |   |   |   |--- mileage <= 0.08
|   |   |   |   |   |   |   |   |   |   |--- value: [14200.00]
|   |   |   |   |   |   |   |   |   |--- mileage >  0.08
|   |   |   |   |   |   |   |   |   |   |--- value: [12825.00]
|   |   |   |   |   |   |--- engineSize >  0.28
|   |   |   |   |   |   |   |--- transmission_Manual <= 0.50
|   |   |   |   |   |   |   |   |--- mileage <= 0.35
|   |   |   |   |   |   |   |   |   |--- year <= -1.27
|   |   |   |   |   |   |   |   |   |   |--- value: [15894.71]
|   |   |   |   |   |   |   |   |   |--- year >  -1.27
|   |   |   |   |   |   |   |   |   |   |--- value: [17548.00]
|   |   |   |   |   |   |   |   |--- mileage >  0.35
|   |   |   |   |   |   |   |   |   |--- transmission_Semi-Auto <= 0.50
|   |   |   |   |   |   |   |   |   |   |--- value: [16310.83]
|   |   |   |   |   |   |   |   |   |--- transmission_Semi-Auto >  0.50
|   |   |   |   |   |   |   |   |   |   |--- value: [15451.39]
|   |   |   |   |   |   |   |--- transmission_Manual >  0.50
|   |   |   |   |   |   |   |   |--- engineSize <= 0.74
|   |   |   |   |   |   |   |   |   |--- mileage <= 0.02
|   |   |   |   |   |   |   |   |   |   |--- value: [13478.00]
|   |   |   |   |   |   |   |   |   |--- mileage >  0.02
|   |   |   |   |   |   |   |   |   |   |--- value: [14194.75]
|   |   |   |   |   |   |   |   |--- engineSize >  0.74
|   |   |   |   |   |   |   |   |   |--- mileage <= 0.03
|   |   |   |   |   |   |   |   |   |   |--- value: [16995.00]
|   |   |   |   |   |   |   |   |   |--- mileage >  0.03
|   |   |   |   |   |   |   |   |   |   |--- value: [14677.38]
|   |   |   |   |   |--- mileage >  0.83
|   |   |   |   |   |   |--- mileage <= 2.53
|   |   |   |   |   |   |   |--- year <= -1.27
|   |   |   |   |   |   |   |   |--- mileage <= 0.95
|   |   |   |   |   |   |   |   |   |--- fuelType_Petrol <= 0.50
|   |   |   |   |   |   |   |   |   |   |--- value: [15556.25]
|   |   |   |   |   |   |   |   |   |--- fuelType_Petrol >  0.50
|   |   |   |   |   |   |   |   |   |   |--- value: [12900.00]
|   |   |   |   |   |   |   |   |--- mileage >  0.95
|   |   |   |   |   |   |   |   |   |--- mileage <= 1.14
|   |   |   |   |   |   |   |   |   |   |--- value: [13615.75]
|   |   |   |   |   |   |   |   |   |--- mileage >  1.14
|   |   |   |   |   |   |   |   |   |   |--- value: [12771.10]
|   |   |   |   |   |   |   |--- year >  -1.27
|   |   |   |   |   |   |   |   |--- mileage <= 0.83
|   |   |   |   |   |   |   |   |   |--- value: [12000.00]
|   |   |   |   |   |   |   |   |--- mileage >  0.83
|   |   |   |   |   |   |   |   |   |--- transmission_Manual <= 0.50
|   |   |   |   |   |   |   |   |   |   |--- value: [14893.73]
|   |   |   |   |   |   |   |   |   |--- transmission_Manual >  0.50
|   |   |   |   |   |   |   |   |   |   |--- value: [12767.90]
|   |   |   |   |   |   |--- mileage >  2.53
|   |   |   |   |   |   |   |--- transmission_Manual <= 0.50
|   |   |   |   |   |   |   |   |--- year <= -1.27
|   |   |   |   |   |   |   |   |   |--- mileage <= 2.67
|   |   |   |   |   |   |   |   |   |   |--- value: [12599.75]
|   |   |   |   |   |   |   |   |   |--- mileage >  2.67
|   |   |   |   |   |   |   |   |   |   |--- value: [10454.40]
|   |   |   |   |   |   |   |   |--- year >  -1.27
|   |   |   |   |   |   |   |   |   |--- mileage <= 5.27
|   |   |   |   |   |   |   |   |   |   |--- value: [13328.50]
|   |   |   |   |   |   |   |   |   |--- mileage >  5.27
|   |   |   |   |   |   |   |   |   |   |--- value: [10795.00]
|   |   |   |   |   |   |   |--- transmission_Manual >  0.50
|   |   |   |   |   |   |   |   |--- mileage <= 5.52
|   |   |   |   |   |   |   |   |   |--- mileage <= 3.94
|   |   |   |   |   |   |   |   |   |   |--- value: [10888.57]
|   |   |   |   |   |   |   |   |   |--- mileage >  3.94
|   |   |   |   |   |   |   |   |   |   |--- value: [10317.75]
|   |   |   |   |   |   |   |   |--- mileage >  5.52
|   |   |   |   |   |   |   |   |   |--- value: [8692.00]
|   |   |   |--- year >  -0.80
|   |   |   |   |--- mileage <= -0.06
|   |   |   |   |   |--- year <= 0.60
|   |   |   |   |   |   |--- transmission_Manual <= 0.50
|   |   |   |   |   |   |   |--- year <= -0.34
|   |   |   |   |   |   |   |   |--- mileage <= -0.07
|   |   |   |   |   |   |   |   |   |--- engineSize <= 0.28
|   |   |   |   |   |   |   |   |   |   |--- value: [17229.00]
|   |   |   |   |   |   |   |   |   |--- engineSize >  0.28
|   |   |   |   |   |   |   |   |   |   |--- value: [19803.76]
|   |   |   |   |   |   |   |   |--- mileage >  -0.07
|   |   |   |   |   |   |   |   |   |--- value: [24749.00]
|   |   |   |   |   |   |   |--- year >  -0.34
|   |   |   |   |   |   |   |   |--- mileage <= -0.39
|   |   |   |   |   |   |   |   |   |--- engineSize <= 0.74
|   |   |   |   |   |   |   |   |   |   |--- value: [25324.67]
|   |   |   |   |   |   |   |   |   |--- engineSize >  0.74
|   |   |   |   |   |   |   |   |   |   |--- value: [22315.27]
|   |   |   |   |   |   |   |   |--- mileage >  -0.39
|   |   |   |   |   |   |   |   |   |--- engineSize <= 0.28
|   |   |   |   |   |   |   |   |   |   |--- value: [19313.58]
|   |   |   |   |   |   |   |   |   |--- engineSize >  0.28
|   |   |   |   |   |   |   |   |   |   |--- value: [21423.71]
|   |   |   |   |   |   |--- transmission_Manual >  0.50
|   |   |   |   |   |   |   |--- mileage <= -0.14
|   |   |   |   |   |   |   |   |--- mileage <= -0.30
|   |   |   |   |   |   |   |   |   |--- mileage <= -0.33
|   |   |   |   |   |   |   |   |   |   |--- value: [15699.00]
|   |   |   |   |   |   |   |   |   |--- mileage >  -0.33
|   |   |   |   |   |   |   |   |   |   |--- value: [14669.50]
|   |   |   |   |   |   |   |   |--- mileage >  -0.30
|   |   |   |   |   |   |   |   |   |--- mileage <= -0.28
|   |   |   |   |   |   |   |   |   |   |--- value: [19799.00]
|   |   |   |   |   |   |   |   |   |--- mileage >  -0.28
|   |   |   |   |   |   |   |   |   |   |--- value: [17354.50]
|   |   |   |   |   |   |   |--- mileage >  -0.14
|   |   |   |   |   |   |   |   |--- fuelType_Petrol <= 0.50
|   |   |   |   |   |   |   |   |   |--- value: [14698.00]
|   |   |   |   |   |   |   |   |--- fuelType_Petrol >  0.50
|   |   |   |   |   |   |   |   |   |--- value: [13900.00]
|   |   |   |   |   |--- year >  0.60
|   |   |   |   |   |   |--- engineSize <= -0.17
|   |   |   |   |   |   |   |--- mileage <= -0.37
|   |   |   |   |   |   |   |   |--- mileage <= -0.41
|   |   |   |   |   |   |   |   |   |--- mileage <= -0.41
|   |   |   |   |   |   |   |   |   |   |--- value: [23386.10]
|   |   |   |   |   |   |   |   |   |--- mileage >  -0.41
|   |   |   |   |   |   |   |   |   |   |--- value: [29480.00]
|   |   |   |   |   |   |   |   |--- mileage >  -0.41
|   |   |   |   |   |   |   |   |   |--- transmission_Semi-Auto <= 0.50
|   |   |   |   |   |   |   |   |   |   |--- value: [23995.00]
|   |   |   |   |   |   |   |   |   |--- transmission_Semi-Auto >  0.50
|   |   |   |   |   |   |   |   |   |   |--- value: [20547.44]
|   |   |   |   |   |   |   |--- mileage >  -0.37
|   |   |   |   |   |   |   |   |--- mileage <= -0.16
|   |   |   |   |   |   |   |   |   |--- mileage <= -0.37
|   |   |   |   |   |   |   |   |   |   |--- value: [23276.17]
|   |   |   |   |   |   |   |   |   |--- mileage >  -0.37
|   |   |   |   |   |   |   |   |   |   |--- value: [24023.78]
|   |   |   |   |   |   |   |   |--- mileage >  -0.16
|   |   |   |   |   |   |   |   |   |--- mileage <= -0.12
|   |   |   |   |   |   |   |   |   |   |--- value: [22800.00]
|   |   |   |   |   |   |   |   |   |--- mileage >  -0.12
|   |   |   |   |   |   |   |   |   |   |--- value: [21449.00]
|   |   |   |   |   |   |--- engineSize >  -0.17
|   |   |   |   |   |   |   |--- mileage <= -0.29
|   |   |   |   |   |   |   |   |--- engineSize <= 0.74
|   |   |   |   |   |   |   |   |   |--- mileage <= -0.39
|   |   |   |   |   |   |   |   |   |   |--- value: [23623.19]
|   |   |   |   |   |   |   |   |   |--- mileage >  -0.39
|   |   |   |   |   |   |   |   |   |   |--- value: [24852.13]
|   |   |   |   |   |   |   |   |--- engineSize >  0.74
|   |   |   |   |   |   |   |   |   |--- mileage <= -0.37
|   |   |   |   |   |   |   |   |   |   |--- value: [18790.00]
|   |   |   |   |   |   |   |   |   |--- mileage >  -0.37
|   |   |   |   |   |   |   |   |   |   |--- value: [19648.50]
|   |   |   |   |   |   |   |--- mileage >  -0.29
|   |   |   |   |   |   |   |   |--- transmission_Semi-Auto <= 0.50
|   |   |   |   |   |   |   |   |   |--- value: [36350.00]
|   |   |   |   |   |   |   |   |--- transmission_Semi-Auto >  0.50
|   |   |   |   |   |   |   |   |   |--- mileage <= -0.19
|   |   |   |   |   |   |   |   |   |   |--- value: [28260.00]
|   |   |   |   |   |   |   |   |   |--- mileage >  -0.19
|   |   |   |   |   |   |   |   |   |   |--- value: [23904.20]
|   |   |   |   |--- mileage >  -0.06
|   |   |   |   |   |--- mileage <= 0.81
|   |   |   |   |   |   |--- transmission_Manual <= 0.50
|   |   |   |   |   |   |   |--- year <= 0.60
|   |   |   |   |   |   |   |   |--- engineSize <= 0.28
|   |   |   |   |   |   |   |   |   |--- mileage <= 0.67
|   |   |   |   |   |   |   |   |   |   |--- value: [16900.00]
|   |   |   |   |   |   |   |   |   |--- mileage >  0.67
|   |   |   |   |   |   |   |   |   |   |--- value: [14390.00]
|   |   |   |   |   |   |   |   |--- engineSize >  0.28
|   |   |   |   |   |   |   |   |   |--- mileage <= 0.39
|   |   |   |   |   |   |   |   |   |   |--- value: [19808.04]
|   |   |   |   |   |   |   |   |   |--- mileage >  0.39
|   |   |   |   |   |   |   |   |   |   |--- value: [18718.05]
|   |   |   |   |   |   |   |--- year >  0.60
|   |   |   |   |   |   |   |   |--- engineSize <= 0.19
|   |   |   |   |   |   |   |   |   |--- mileage <= 0.01
|   |   |   |   |   |   |   |   |   |   |--- value: [24998.00]
|   |   |   |   |   |   |   |   |   |--- mileage >  0.01
|   |   |   |   |   |   |   |   |   |   |--- value: [22699.00]
|   |   |   |   |   |   |   |   |--- engineSize >  0.19
|   |   |   |   |   |   |   |   |   |--- mileage <= 0.12
|   |   |   |   |   |   |   |   |   |   |--- value: [26795.00]
|   |   |   |   |   |   |   |   |   |--- mileage >  0.12
|   |   |   |   |   |   |   |   |   |   |--- value: [29998.00]
|   |   |   |   |   |   |--- transmission_Manual >  0.50
|   |   |   |   |   |   |   |--- mileage <= 0.80
|   |   |   |   |   |   |   |   |--- mileage <= 0.03
|   |   |   |   |   |   |   |   |   |--- mileage <= -0.00
|   |   |   |   |   |   |   |   |   |   |--- value: [14374.00]
|   |   |   |   |   |   |   |   |   |--- mileage >  -0.00
|   |   |   |   |   |   |   |   |   |   |--- value: [13199.67]
|   |   |   |   |   |   |   |   |--- mileage >  0.03
|   |   |   |   |   |   |   |   |   |--- mileage <= 0.44
|   |   |   |   |   |   |   |   |   |   |--- value: [15500.38]
|   |   |   |   |   |   |   |   |   |--- mileage >  0.44
|   |   |   |   |   |   |   |   |   |   |--- value: [14545.83]
|   |   |   |   |   |   |   |--- mileage >  0.80
|   |   |   |   |   |   |   |   |--- value: [19600.00]
|   |   |   |   |   |--- mileage >  0.81
|   |   |   |   |   |   |--- year <= -0.34
|   |   |   |   |   |   |   |--- mileage <= 2.77
|   |   |   |   |   |   |   |   |--- transmission_Manual <= 0.50
|   |   |   |   |   |   |   |   |   |--- mileage <= 2.73
|   |   |   |   |   |   |   |   |   |   |--- value: [16336.81]
|   |   |   |   |   |   |   |   |   |--- mileage >  2.73
|   |   |   |   |   |   |   |   |   |   |--- value: [20503.00]
|   |   |   |   |   |   |   |   |--- transmission_Manual >  0.50
|   |   |   |   |   |   |   |   |   |--- mileage <= 0.85
|   |   |   |   |   |   |   |   |   |   |--- value: [16237.50]
|   |   |   |   |   |   |   |   |   |--- mileage >  0.85
|   |   |   |   |   |   |   |   |   |   |--- value: [13207.50]
|   |   |   |   |   |   |   |--- mileage >  2.77
|   |   |   |   |   |   |   |   |--- transmission_Manual <= 0.50
|   |   |   |   |   |   |   |   |   |--- mileage <= 4.04
|   |   |   |   |   |   |   |   |   |   |--- value: [13532.46]
|   |   |   |   |   |   |   |   |   |--- mileage >  4.04
|   |   |   |   |   |   |   |   |   |   |--- value: [12026.67]
|   |   |   |   |   |   |   |   |--- transmission_Manual >  0.50
|   |   |   |   |   |   |   |   |   |--- engineSize <= 0.38
|   |   |   |   |   |   |   |   |   |   |--- value: [10998.00]
|   |   |   |   |   |   |   |   |   |--- engineSize >  0.38
|   |   |   |   |   |   |   |   |   |   |--- value: [10749.00]
|   |   |   |   |   |   |--- year >  -0.34
|   |   |   |   |   |   |   |--- mileage <= 1.64
|   |   |   |   |   |   |   |   |--- transmission_Semi-Auto <= 0.50
|   |   |   |   |   |   |   |   |   |--- fuelType_Petrol <= 0.50
|   |   |   |   |   |   |   |   |   |   |--- value: [17245.10]
|   |   |   |   |   |   |   |   |   |--- fuelType_Petrol >  0.50
|   |   |   |   |   |   |   |   |   |   |--- value: [19929.67]
|   |   |   |   |   |   |   |   |--- transmission_Semi-Auto >  0.50
|   |   |   |   |   |   |   |   |   |--- mileage <= 1.45
|   |   |   |   |   |   |   |   |   |   |--- value: [18727.12]
|   |   |   |   |   |   |   |   |   |--- mileage >  1.45
|   |   |   |   |   |   |   |   |   |   |--- value: [22735.50]
|   |   |   |   |   |   |   |--- mileage >  1.64
|   |   |   |   |   |   |   |   |--- year <= 0.13
|   |   |   |   |   |   |   |   |   |--- mileage <= 3.16
|   |   |   |   |   |   |   |   |   |   |--- value: [15834.27]
|   |   |   |   |   |   |   |   |   |--- mileage >  3.16
|   |   |   |   |   |   |   |   |   |   |--- value: [13392.00]
|   |   |   |   |   |   |   |   |--- year >  0.13
|   |   |   |   |   |   |   |   |   |--- value: [20250.00]
|   |   |--- engineSize >  2.20
|   |   |   |--- year <= -1.74
|   |   |   |   |--- engineSize <= 5.12
|   |   |   |   |   |--- mileage <= 2.19
|   |   |   |   |   |   |--- value: [9495.00]
|   |   |   |   |   |--- mileage >  2.19
|   |   |   |   |   |   |--- fuelType_Petrol <= 0.50
|   |   |   |   |   |   |   |--- value: [4480.00]
|   |   |   |   |   |   |--- fuelType_Petrol >  0.50
|   |   |   |   |   |   |   |--- value: [3200.00]
|   |   |   |   |--- engineSize >  5.12
|   |   |   |   |   |--- engineSize <= 7.58
|   |   |   |   |   |   |--- value: [15990.00]
|   |   |   |   |   |--- engineSize >  7.58
|   |   |   |   |   |   |--- transmission_Semi-Auto <= 0.50
|   |   |   |   |   |   |   |--- value: [21999.00]
|   |   |   |   |   |   |--- transmission_Semi-Auto >  0.50
|   |   |   |   |   |   |   |--- value: [22995.00]
|   |   |   |--- year >  -1.74
|   |   |   |   |--- engineSize <= 3.38
|   |   |   |   |   |--- year <= 0.13
|   |   |   |   |   |   |--- mileage <= 0.46
|   |   |   |   |   |   |   |--- mileage <= 0.13
|   |   |   |   |   |   |   |   |--- mileage <= 0.12
|   |   |   |   |   |   |   |   |   |--- transmission_Semi-Auto <= 0.50
|   |   |   |   |   |   |   |   |   |   |--- value: [31761.40]
|   |   |   |   |   |   |   |   |   |--- transmission_Semi-Auto >  0.50
|   |   |   |   |   |   |   |   |   |   |--- value: [30620.22]
|   |   |   |   |   |   |   |   |--- mileage >  0.12
|   |   |   |   |   |   |   |   |   |--- value: [28672.00]
|   |   |   |   |   |   |   |--- mileage >  0.13
|   |   |   |   |   |   |   |   |--- mileage <= 0.15
|   |   |   |   |   |   |   |   |   |--- value: [36995.00]
|   |   |   |   |   |   |   |   |--- mileage >  0.15
|   |   |   |   |   |   |   |   |   |--- mileage <= 0.35
|   |   |   |   |   |   |   |   |   |   |--- value: [30758.00]
|   |   |   |   |   |   |   |   |   |--- mileage >  0.35
|   |   |   |   |   |   |   |   |   |   |--- value: [33499.00]
|   |   |   |   |   |   |--- mileage >  0.46
|   |   |   |   |   |   |   |--- transmission_Semi-Auto <= 0.50
|   |   |   |   |   |   |   |   |--- mileage <= 0.63
|   |   |   |   |   |   |   |   |   |--- value: [31945.00]
|   |   |   |   |   |   |   |   |--- mileage >  0.63
|   |   |   |   |   |   |   |   |   |--- year <= -0.34
|   |   |   |   |   |   |   |   |   |   |--- value: [27444.00]
|   |   |   |   |   |   |   |   |   |--- year >  -0.34
|   |   |   |   |   |   |   |   |   |   |--- value: [31692.00]
|   |   |   |   |   |   |   |--- transmission_Semi-Auto >  0.50
|   |   |   |   |   |   |   |   |--- mileage <= 0.70
|   |   |   |   |   |   |   |   |   |--- value: [27699.00]
|   |   |   |   |   |   |   |   |--- mileage >  0.70
|   |   |   |   |   |   |   |   |   |--- value: [28624.00]
|   |   |   |   |   |--- year >  0.13
|   |   |   |   |   |   |--- mileage <= -0.18
|   |   |   |   |   |   |   |--- mileage <= -0.31
|   |   |   |   |   |   |   |   |--- transmission_Semi-Auto <= 0.50
|   |   |   |   |   |   |   |   |   |--- value: [34680.00]
|   |   |   |   |   |   |   |   |--- transmission_Semi-Auto >  0.50
|   |   |   |   |   |   |   |   |   |--- value: [33980.00]
|   |   |   |   |   |   |   |--- mileage >  -0.31
|   |   |   |   |   |   |   |   |--- value: [29999.00]
|   |   |   |   |   |   |--- mileage >  -0.18
|   |   |   |   |   |   |   |--- transmission_Semi-Auto <= 0.50
|   |   |   |   |   |   |   |   |--- year <= 0.60
|   |   |   |   |   |   |   |   |   |--- value: [34990.00]
|   |   |   |   |   |   |   |   |--- year >  0.60
|   |   |   |   |   |   |   |   |   |--- value: [34890.00]
|   |   |   |   |   |   |   |--- transmission_Semi-Auto >  0.50
|   |   |   |   |   |   |   |   |--- value: [35740.00]
|   |   |   |   |--- engineSize >  3.38
|   |   |   |   |   |--- year <= -0.34
|   |   |   |   |   |   |--- engineSize <= 6.30
|   |   |   |   |   |   |   |--- mileage <= 0.48
|   |   |   |   |   |   |   |   |--- mileage <= 0.35
|   |   |   |   |   |   |   |   |   |--- mileage <= 0.29
|   |   |   |   |   |   |   |   |   |   |--- value: [37438.29]
|   |   |   |   |   |   |   |   |   |--- mileage >  0.29
|   |   |   |   |   |   |   |   |   |   |--- value: [31649.00]
|   |   |   |   |   |   |   |   |--- mileage >  0.35
|   |   |   |   |   |   |   |   |   |--- mileage <= 0.40
|   |   |   |   |   |   |   |   |   |   |--- value: [40995.00]
|   |   |   |   |   |   |   |   |   |--- mileage >  0.40
|   |   |   |   |   |   |   |   |   |   |--- value: [37992.50]
|   |   |   |   |   |   |   |--- mileage >  0.48
|   |   |   |   |   |   |   |   |--- transmission_Semi-Auto <= 0.50
|   |   |   |   |   |   |   |   |   |--- value: [29900.00]
|   |   |   |   |   |   |   |   |--- transmission_Semi-Auto >  0.50
|   |   |   |   |   |   |   |   |   |--- value: [30480.00]
|   |   |   |   |   |   |--- engineSize >  6.30
|   |   |   |   |   |   |   |--- transmission_Semi-Auto <= 0.50
|   |   |   |   |   |   |   |   |--- value: [21495.00]
|   |   |   |   |   |   |   |--- transmission_Semi-Auto >  0.50
|   |   |   |   |   |   |   |   |--- mileage <= -0.03
|   |   |   |   |   |   |   |   |   |--- value: [28990.00]
|   |   |   |   |   |   |   |   |--- mileage >  -0.03
|   |   |   |   |   |   |   |   |   |--- mileage <= 0.38
|   |   |   |   |   |   |   |   |   |   |--- value: [26998.00]
|   |   |   |   |   |   |   |   |   |--- mileage >  0.38
|   |   |   |   |   |   |   |   |   |   |--- value: [25885.00]
|   |   |   |   |   |--- year >  -0.34
|   |   |   |   |   |   |--- mileage <= -0.02
|   |   |   |   |   |   |   |--- mileage <= -0.05
|   |   |   |   |   |   |   |   |--- mileage <= -0.15
|   |   |   |   |   |   |   |   |   |--- mileage <= -0.32
|   |   |   |   |   |   |   |   |   |   |--- value: [47115.67]
|   |   |   |   |   |   |   |   |   |--- mileage >  -0.32
|   |   |   |   |   |   |   |   |   |   |--- value: [42792.00]
|   |   |   |   |   |   |   |   |--- mileage >  -0.15
|   |   |   |   |   |   |   |   |   |--- transmission_Semi-Auto <= 0.50
|   |   |   |   |   |   |   |   |   |   |--- value: [45970.00]
|   |   |   |   |   |   |   |   |   |--- transmission_Semi-Auto >  0.50
|   |   |   |   |   |   |   |   |   |   |--- value: [49990.00]
|   |   |   |   |   |   |   |--- mileage >  -0.05
|   |   |   |   |   |   |   |   |--- value: [59740.00]
|   |   |   |   |   |   |--- mileage >  -0.02
|   |   |   |   |   |   |   |--- year <= 0.13
|   |   |   |   |   |   |   |   |--- mileage <= 0.22
|   |   |   |   |   |   |   |   |   |--- mileage <= 0.08
|   |   |   |   |   |   |   |   |   |   |--- value: [36631.67]
|   |   |   |   |   |   |   |   |   |--- mileage >  0.08
|   |   |   |   |   |   |   |   |   |   |--- value: [44977.33]
|   |   |   |   |   |   |   |   |--- mileage >  0.22
|   |   |   |   |   |   |   |   |   |--- mileage <= 0.31
|   |   |   |   |   |   |   |   |   |   |--- value: [34981.00]
|   |   |   |   |   |   |   |   |   |--- mileage >  0.31
|   |   |   |   |   |   |   |   |   |   |--- value: [33656.00]
|   |   |   |   |   |   |   |--- year >  0.13
|   |   |   |   |   |   |   |   |--- value: [45895.00]
|--- model_ Focus >  0.50
|   |--- year <= 0.13
|   |   |--- year <= -0.80
|   |   |   |--- year <= -2.20
|   |   |   |   |--- year <= -3.14
|   |   |   |   |   |--- engineSize <= 1.10
|   |   |   |   |   |   |--- mileage <= 2.14
|   |   |   |   |   |   |   |--- year <= -3.60
|   |   |   |   |   |   |   |   |--- mileage <= 0.82
|   |   |   |   |   |   |   |   |   |--- mileage <= 0.59
|   |   |   |   |   |   |   |   |   |   |--- value: [4495.00]
|   |   |   |   |   |   |   |   |   |--- mileage >  0.59
|   |   |   |   |   |   |   |   |   |   |--- value: [4299.00]
|   |   |   |   |   |   |   |   |--- mileage >  0.82
|   |   |   |   |   |   |   |   |   |--- mileage <= 0.92
|   |   |   |   |   |   |   |   |   |   |--- value: [1995.00]
|   |   |   |   |   |   |   |   |   |--- mileage >  0.92
|   |   |   |   |   |   |   |   |   |   |--- value: [3266.57]
|   |   |   |   |   |   |   |--- year >  -3.60
|   |   |   |   |   |   |   |   |--- mileage <= 0.58
|   |   |   |   |   |   |   |   |   |--- value: [6495.00]
|   |   |   |   |   |   |   |   |--- mileage >  0.58
|   |   |   |   |   |   |   |   |   |--- fuelType_Petrol <= 0.50
|   |   |   |   |   |   |   |   |   |   |--- value: [3699.00]
|   |   |   |   |   |   |   |   |   |--- fuelType_Petrol >  0.50
|   |   |   |   |   |   |   |   |   |   |--- value: [5047.00]
|   |   |   |   |   |   |--- mileage >  2.14
|   |   |   |   |   |   |   |--- year <= -4.07
|   |   |   |   |   |   |   |   |--- year <= -5.47
|   |   |   |   |   |   |   |   |   |--- mileage <= 3.64
|   |   |   |   |   |   |   |   |   |   |--- value: [1745.00]
|   |   |   |   |   |   |   |   |   |--- mileage >  3.64
|   |   |   |   |   |   |   |   |   |   |--- value: [898.00]
|   |   |   |   |   |   |   |   |--- year >  -5.47
|   |   |   |   |   |   |   |   |   |--- mileage <= 3.62
|   |   |   |   |   |   |   |   |   |   |--- value: [2433.47]
|   |   |   |   |   |   |   |   |   |--- mileage >  3.62
|   |   |   |   |   |   |   |   |   |   |--- value: [1776.00]
|   |   |   |   |   |   |   |--- year >  -4.07
|   |   |   |   |   |   |   |   |--- mileage <= 3.36
|   |   |   |   |   |   |   |   |   |--- mileage <= 2.72
|   |   |   |   |   |   |   |   |   |   |--- value: [3665.00]
|   |   |   |   |   |   |   |   |   |--- mileage >  2.72
|   |   |   |   |   |   |   |   |   |   |--- value: [3148.45]
|   |   |   |   |   |   |   |   |--- mileage >  3.36
|   |   |   |   |   |   |   |   |   |--- year <= -3.60
|   |   |   |   |   |   |   |   |   |   |--- value: [2367.57]
|   |   |   |   |   |   |   |   |   |--- year >  -3.60
|   |   |   |   |   |   |   |   |   |   |--- value: [2807.00]
|   |   |   |   |   |--- engineSize >  1.10
|   |   |   |   |   |   |--- mileage <= 1.26
|   |   |   |   |   |   |   |--- value: [21500.00]
|   |   |   |   |   |   |--- mileage >  1.26
|   |   |   |   |   |   |   |--- mileage <= 1.79
|   |   |   |   |   |   |   |   |--- value: [7490.00]
|   |   |   |   |   |   |   |--- mileage >  1.79
|   |   |   |   |   |   |   |   |--- value: [5995.00]
|   |   |   |   |--- year >  -3.14
|   |   |   |   |   |--- mileage <= 1.53
|   |   |   |   |   |   |--- engineSize <= 0.28
|   |   |   |   |   |   |   |--- mileage <= 0.18
|   |   |   |   |   |   |   |   |--- value: [7795.00]
|   |   |   |   |   |   |   |--- mileage >  0.18
|   |   |   |   |   |   |   |   |--- mileage <= 1.21
|   |   |   |   |   |   |   |   |   |--- mileage <= 0.61
|   |   |   |   |   |   |   |   |   |   |--- value: [6022.50]
|   |   |   |   |   |   |   |   |   |--- mileage >  0.61
|   |   |   |   |   |   |   |   |   |   |--- value: [6654.62]
|   |   |   |   |   |   |   |   |--- mileage >  1.21
|   |   |   |   |   |   |   |   |   |--- year <= -2.67
|   |   |   |   |   |   |   |   |   |   |--- value: [5999.00]
|   |   |   |   |   |   |   |   |   |--- year >  -2.67
|   |   |   |   |   |   |   |   |   |   |--- value: [5499.00]
|   |   |   |   |   |   |--- engineSize >  0.28
|   |   |   |   |   |   |   |--- fuelType_Petrol <= 0.50
|   |   |   |   |   |   |   |   |--- value: [7495.00]
|   |   |   |   |   |   |   |--- fuelType_Petrol >  0.50
|   |   |   |   |   |   |   |   |--- engineSize <= 1.10
|   |   |   |   |   |   |   |   |   |--- value: [9799.00]
|   |   |   |   |   |   |   |   |--- engineSize >  1.10
|   |   |   |   |   |   |   |   |   |--- value: [9199.00]
|   |   |   |   |   |--- mileage >  1.53
|   |   |   |   |   |   |--- mileage <= 2.88
|   |   |   |   |   |   |   |--- mileage <= 2.62
|   |   |   |   |   |   |   |   |--- transmission_Manual <= 0.50
|   |   |   |   |   |   |   |   |   |--- mileage <= 1.90
|   |   |   |   |   |   |   |   |   |   |--- value: [4195.00]
|   |   |   |   |   |   |   |   |   |--- mileage >  1.90
|   |   |   |   |   |   |   |   |   |   |--- value: [3995.00]
|   |   |   |   |   |   |   |   |--- transmission_Manual >  0.50
|   |   |   |   |   |   |   |   |   |--- fuelType_Petrol <= 0.50
|   |   |   |   |   |   |   |   |   |   |--- value: [5347.38]
|   |   |   |   |   |   |   |   |   |--- fuelType_Petrol >  0.50
|   |   |   |   |   |   |   |   |   |   |--- value: [5118.80]
|   |   |   |   |   |   |   |--- mileage >  2.62
|   |   |   |   |   |   |   |   |--- mileage <= 2.71
|   |   |   |   |   |   |   |   |   |--- value: [6495.00]
|   |   |   |   |   |   |   |   |--- mileage >  2.71
|   |   |   |   |   |   |   |   |   |--- fuelType_Petrol <= 0.50
|   |   |   |   |   |   |   |   |   |   |--- value: [5999.00]
|   |   |   |   |   |   |   |   |   |--- fuelType_Petrol >  0.50
|   |   |   |   |   |   |   |   |   |   |--- value: [4995.00]
|   |   |   |   |   |   |--- mileage >  2.88
|   |   |   |   |   |   |   |--- mileage <= 3.22
|   |   |   |   |   |   |   |   |--- mileage <= 3.03
|   |   |   |   |   |   |   |   |   |--- mileage <= 2.95
|   |   |   |   |   |   |   |   |   |   |--- value: [3499.00]
|   |   |   |   |   |   |   |   |   |--- mileage >  2.95
|   |   |   |   |   |   |   |   |   |   |--- value: [3295.00]
|   |   |   |   |   |   |   |   |--- mileage >  3.03
|   |   |   |   |   |   |   |   |   |--- fuelType_Petrol <= 0.50
|   |   |   |   |   |   |   |   |   |   |--- value: [3695.00]
|   |   |   |   |   |   |   |   |   |--- fuelType_Petrol >  0.50
|   |   |   |   |   |   |   |   |   |   |--- value: [4495.00]
|   |   |   |   |   |   |   |--- mileage >  3.22
|   |   |   |   |   |   |   |   |--- mileage <= 3.69
|   |   |   |   |   |   |   |   |   |--- fuelType_Petrol <= 0.50
|   |   |   |   |   |   |   |   |   |   |--- value: [5945.00]
|   |   |   |   |   |   |   |   |   |--- fuelType_Petrol >  0.50
|   |   |   |   |   |   |   |   |   |   |--- value: [4749.00]
|   |   |   |   |   |   |   |   |--- mileage >  3.69
|   |   |   |   |   |   |   |   |   |--- mileage <= 3.88
|   |   |   |   |   |   |   |   |   |   |--- value: [3495.00]
|   |   |   |   |   |   |   |   |   |--- mileage >  3.88
|   |   |   |   |   |   |   |   |   |   |--- value: [4266.00]
|   |   |   |--- year >  -2.20
|   |   |   |   |--- engineSize <= 0.28
|   |   |   |   |   |--- year <= -1.27
|   |   |   |   |   |   |--- mileage <= 1.42
|   |   |   |   |   |   |   |--- year <= -1.74
|   |   |   |   |   |   |   |   |--- engineSize <= -2.09
|   |   |   |   |   |   |   |   |   |--- value: [8999.00]
|   |   |   |   |   |   |   |   |--- engineSize >  -2.09
|   |   |   |   |   |   |   |   |   |--- engineSize <= -0.63
|   |   |   |   |   |   |   |   |   |   |--- value: [6444.60]
|   |   |   |   |   |   |   |   |   |--- engineSize >  -0.63
|   |   |   |   |   |   |   |   |   |   |--- value: [6922.30]
|   |   |   |   |   |   |   |--- year >  -1.74
|   |   |   |   |   |   |   |   |--- mileage <= 0.48
|   |   |   |   |   |   |   |   |   |--- mileage <= -0.38
|   |   |   |   |   |   |   |   |   |   |--- value: [8690.50]
|   |   |   |   |   |   |   |   |   |--- mileage >  -0.38
|   |   |   |   |   |   |   |   |   |   |--- value: [7894.27]
|   |   |   |   |   |   |   |   |--- mileage >  0.48
|   |   |   |   |   |   |   |   |   |--- fuelType_Petrol <= 0.50
|   |   |   |   |   |   |   |   |   |   |--- value: [7727.58]
|   |   |   |   |   |   |   |   |   |--- fuelType_Petrol >  0.50
|   |   |   |   |   |   |   |   |   |   |--- value: [7202.68]
|   |   |   |   |   |   |--- mileage >  1.42
|   |   |   |   |   |   |   |--- mileage <= 2.39
|   |   |   |   |   |   |   |   |--- mileage <= 1.72
|   |   |   |   |   |   |   |   |   |--- year <= -1.74
|   |   |   |   |   |   |   |   |   |   |--- value: [6395.41]
|   |   |   |   |   |   |   |   |   |--- year >  -1.74
|   |   |   |   |   |   |   |   |   |   |--- value: [6645.36]
|   |   |   |   |   |   |   |   |--- mileage >  1.72
|   |   |   |   |   |   |   |   |   |--- year <= -1.74
|   |   |   |   |   |   |   |   |   |   |--- value: [5923.57]
|   |   |   |   |   |   |   |   |   |--- year >  -1.74
|   |   |   |   |   |   |   |   |   |   |--- value: [6299.14]
|   |   |   |   |   |   |   |--- mileage >  2.39
|   |   |   |   |   |   |   |   |--- mileage <= 4.05
|   |   |   |   |   |   |   |   |   |--- mileage <= 3.03
|   |   |   |   |   |   |   |   |   |   |--- value: [5487.07]
|   |   |   |   |   |   |   |   |   |--- mileage >  3.03
|   |   |   |   |   |   |   |   |   |   |--- value: [4800.00]
|   |   |   |   |   |   |   |   |--- mileage >  4.05
|   |   |   |   |   |   |   |   |   |--- mileage <= 4.69
|   |   |   |   |   |   |   |   |   |   |--- value: [3990.00]
|   |   |   |   |   |   |   |   |   |--- mileage >  4.69
|   |   |   |   |   |   |   |   |   |   |--- value: [2995.00]
|   |   |   |   |   |--- year >  -1.27
|   |   |   |   |   |   |--- mileage <= 0.80
|   |   |   |   |   |   |   |--- mileage <= 0.07
|   |   |   |   |   |   |   |   |--- engineSize <= -0.17
|   |   |   |   |   |   |   |   |   |--- engineSize <= -0.72
|   |   |   |   |   |   |   |   |   |   |--- value: [9494.56]
|   |   |   |   |   |   |   |   |   |--- engineSize >  -0.72
|   |   |   |   |   |   |   |   |   |   |--- value: [10180.89]
|   |   |   |   |   |   |   |   |--- engineSize >  -0.17
|   |   |   |   |   |   |   |   |   |--- mileage <= -0.38
|   |   |   |   |   |   |   |   |   |   |--- value: [9745.57]
|   |   |   |   |   |   |   |   |   |--- mileage >  -0.38
|   |   |   |   |   |   |   |   |   |   |--- value: [8765.60]
|   |   |   |   |   |   |   |--- mileage >  0.07
|   |   |   |   |   |   |   |   |--- mileage <= 0.37
|   |   |   |   |   |   |   |   |   |--- fuelType_Petrol <= 0.50
|   |   |   |   |   |   |   |   |   |   |--- value: [9325.31]
|   |   |   |   |   |   |   |   |   |--- fuelType_Petrol >  0.50
|   |   |   |   |   |   |   |   |   |   |--- value: [8762.30]
|   |   |   |   |   |   |   |   |--- mileage >  0.37
|   |   |   |   |   |   |   |   |   |--- mileage <= 0.44
|   |   |   |   |   |   |   |   |   |   |--- value: [8228.33]
|   |   |   |   |   |   |   |   |   |--- mileage >  0.44
|   |   |   |   |   |   |   |   |   |   |--- value: [8712.00]
|   |   |   |   |   |   |--- mileage >  0.80
|   |   |   |   |   |   |   |--- mileage <= 2.26
|   |   |   |   |   |   |   |   |--- mileage <= 1.44
|   |   |   |   |   |   |   |   |   |--- engineSize <= -0.72
|   |   |   |   |   |   |   |   |   |   |--- value: [7877.20]
|   |   |   |   |   |   |   |   |   |--- engineSize >  -0.72
|   |   |   |   |   |   |   |   |   |   |--- value: [8258.88]
|   |   |   |   |   |   |   |   |--- mileage >  1.44
|   |   |   |   |   |   |   |   |   |--- fuelType_Petrol <= 0.50
|   |   |   |   |   |   |   |   |   |   |--- value: [7766.92]
|   |   |   |   |   |   |   |   |   |--- fuelType_Petrol >  0.50
|   |   |   |   |   |   |   |   |   |   |--- value: [7384.00]
|   |   |   |   |   |   |   |--- mileage >  2.26
|   |   |   |   |   |   |   |   |--- mileage <= 2.78
|   |   |   |   |   |   |   |   |   |--- mileage <= 2.57
|   |   |   |   |   |   |   |   |   |   |--- value: [6806.80]
|   |   |   |   |   |   |   |   |   |--- mileage >  2.57
|   |   |   |   |   |   |   |   |   |   |--- value: [6618.33]
|   |   |   |   |   |   |   |   |--- mileage >  2.78
|   |   |   |   |   |   |   |   |   |--- mileage <= 4.25
|   |   |   |   |   |   |   |   |   |   |--- value: [6197.80]
|   |   |   |   |   |   |   |   |   |--- mileage >  4.25
|   |   |   |   |   |   |   |   |   |   |--- value: [5492.00]
|   |   |   |   |--- engineSize >  0.28
|   |   |   |   |   |--- mileage <= 1.18
|   |   |   |   |   |   |--- mileage <= 0.71
|   |   |   |   |   |   |   |--- transmission_Semi-Auto <= 0.50
|   |   |   |   |   |   |   |   |--- year <= -1.27
|   |   |   |   |   |   |   |   |   |--- mileage <= 0.00
|   |   |   |   |   |   |   |   |   |   |--- value: [14299.00]
|   |   |   |   |   |   |   |   |   |--- mileage >  0.00
|   |   |   |   |   |   |   |   |   |   |--- value: [12820.25]
|   |   |   |   |   |   |   |   |--- year >  -1.27
|   |   |   |   |   |   |   |   |   |--- fuelType_Petrol <= 0.50
|   |   |   |   |   |   |   |   |   |   |--- value: [13256.60]
|   |   |   |   |   |   |   |   |   |--- fuelType_Petrol >  0.50
|   |   |   |   |   |   |   |   |   |   |--- value: [13585.50]
|   |   |   |   |   |   |   |--- transmission_Semi-Auto >  0.50
|   |   |   |   |   |   |   |   |--- value: [11495.00]
|   |   |   |   |   |   |--- mileage >  0.71
|   |   |   |   |   |   |   |--- year <= -1.27
|   |   |   |   |   |   |   |   |--- mileage <= 1.06
|   |   |   |   |   |   |   |   |   |--- mileage <= 0.94
|   |   |   |   |   |   |   |   |   |   |--- value: [11318.00]
|   |   |   |   |   |   |   |   |   |--- mileage >  0.94
|   |   |   |   |   |   |   |   |   |   |--- value: [10999.00]
|   |   |   |   |   |   |   |   |--- mileage >  1.06
|   |   |   |   |   |   |   |   |   |--- value: [12500.00]
|   |   |   |   |   |   |   |--- year >  -1.27
|   |   |   |   |   |   |   |   |--- mileage <= 0.96
|   |   |   |   |   |   |   |   |   |--- mileage <= 0.85
|   |   |   |   |   |   |   |   |   |   |--- value: [12371.50]
|   |   |   |   |   |   |   |   |   |--- mileage >  0.85
|   |   |   |   |   |   |   |   |   |   |--- value: [13283.00]
|   |   |   |   |   |   |   |   |--- mileage >  0.96
|   |   |   |   |   |   |   |   |   |--- mileage <= 1.14
|   |   |   |   |   |   |   |   |   |   |--- value: [12154.83]
|   |   |   |   |   |   |   |   |   |--- mileage >  1.14
|   |   |   |   |   |   |   |   |   |   |--- value: [12638.00]
|   |   |   |   |   |--- mileage >  1.18
|   |   |   |   |   |   |--- mileage <= 2.63
|   |   |   |   |   |   |   |--- year <= -1.27
|   |   |   |   |   |   |   |   |--- fuelType_Petrol <= 0.50
|   |   |   |   |   |   |   |   |   |--- mileage <= 2.19
|   |   |   |   |   |   |   |   |   |   |--- value: [7116.00]
|   |   |   |   |   |   |   |   |   |--- mileage >  2.19
|   |   |   |   |   |   |   |   |   |   |--- value: [6750.00]
|   |   |   |   |   |   |   |   |--- fuelType_Petrol >  0.50
|   |   |   |   |   |   |   |   |   |--- mileage <= 1.76
|   |   |   |   |   |   |   |   |   |   |--- value: [10154.25]
|   |   |   |   |   |   |   |   |   |--- mileage >  1.76
|   |   |   |   |   |   |   |   |   |   |--- value: [9494.20]
|   |   |   |   |   |   |   |--- year >  -1.27
|   |   |   |   |   |   |   |   |--- mileage <= 1.29
|   |   |   |   |   |   |   |   |   |--- value: [12991.00]
|   |   |   |   |   |   |   |   |--- mileage >  1.29
|   |   |   |   |   |   |   |   |   |--- mileage <= 1.55
|   |   |   |   |   |   |   |   |   |   |--- value: [10495.00]
|   |   |   |   |   |   |   |   |   |--- mileage >  1.55
|   |   |   |   |   |   |   |   |   |   |--- value: [11781.67]
|   |   |   |   |   |   |--- mileage >  2.63
|   |   |   |   |   |   |   |--- year <= -1.74
|   |   |   |   |   |   |   |   |--- value: [4995.00]
|   |   |   |   |   |   |   |--- year >  -1.74
|   |   |   |   |   |   |   |   |--- mileage <= 2.94
|   |   |   |   |   |   |   |   |   |--- value: [6591.00]
|   |   |   |   |   |   |   |   |--- mileage >  2.94
|   |   |   |   |   |   |   |   |   |--- value: [5995.00]
|   |   |--- year >  -0.80
|   |   |   |--- engineSize <= 0.28
|   |   |   |   |--- mileage <= -1.02
|   |   |   |   |   |--- value: [38015.00]
|   |   |   |   |--- mileage >  -1.02
|   |   |   |   |   |--- year <= -0.34
|   |   |   |   |   |   |--- mileage <= 0.54
|   |   |   |   |   |   |   |--- mileage <= -0.45
|   |   |   |   |   |   |   |   |--- engineSize <= -0.72
|   |   |   |   |   |   |   |   |   |--- mileage <= -0.65
|   |   |   |   |   |   |   |   |   |   |--- value: [10997.43]
|   |   |   |   |   |   |   |   |   |--- mileage >  -0.65
|   |   |   |   |   |   |   |   |   |   |--- value: [10371.57]
|   |   |   |   |   |   |   |   |--- engineSize >  -0.72
|   |   |   |   |   |   |   |   |   |--- transmission_Manual <= 0.50
|   |   |   |   |   |   |   |   |   |   |--- value: [12730.75]
|   |   |   |   |   |   |   |   |   |--- transmission_Manual >  0.50
|   |   |   |   |   |   |   |   |   |   |--- value: [11345.17]
|   |   |   |   |   |   |   |--- mileage >  -0.45
|   |   |   |   |   |   |   |   |--- engineSize <= -2.09
|   |   |   |   |   |   |   |   |   |--- value: [15500.00]
|   |   |   |   |   |   |   |   |--- engineSize >  -2.09
|   |   |   |   |   |   |   |   |   |--- transmission_Manual <= 0.50
|   |   |   |   |   |   |   |   |   |   |--- value: [10605.40]
|   |   |   |   |   |   |   |   |   |--- transmission_Manual >  0.50
|   |   |   |   |   |   |   |   |   |   |--- value: [10004.59]
|   |   |   |   |   |   |--- mileage >  0.54
|   |   |   |   |   |   |   |--- mileage <= 1.25
|   |   |   |   |   |   |   |   |--- mileage <= 0.94
|   |   |   |   |   |   |   |   |   |--- engineSize <= -0.72
|   |   |   |   |   |   |   |   |   |   |--- value: [8956.89]
|   |   |   |   |   |   |   |   |   |--- engineSize >  -0.72
|   |   |   |   |   |   |   |   |   |   |--- value: [9427.94]
|   |   |   |   |   |   |   |   |--- mileage >  0.94
|   |   |   |   |   |   |   |   |   |--- mileage <= 1.10
|   |   |   |   |   |   |   |   |   |   |--- value: [8647.25]
|   |   |   |   |   |   |   |   |   |--- mileage >  1.10
|   |   |   |   |   |   |   |   |   |   |--- value: [9028.94]
|   |   |   |   |   |   |   |--- mileage >  1.25
|   |   |   |   |   |   |   |   |--- mileage <= 2.07
|   |   |   |   |   |   |   |   |   |--- mileage <= 1.26
|   |   |   |   |   |   |   |   |   |   |--- value: [7391.00]
|   |   |   |   |   |   |   |   |   |--- mileage >  1.26
|   |   |   |   |   |   |   |   |   |   |--- value: [8359.87]
|   |   |   |   |   |   |   |   |--- mileage >  2.07
|   |   |   |   |   |   |   |   |   |--- mileage <= 3.18
|   |   |   |   |   |   |   |   |   |   |--- value: [7663.00]
|   |   |   |   |   |   |   |   |   |--- mileage >  3.18
|   |   |   |   |   |   |   |   |   |   |--- value: [6822.00]
|   |   |   |   |   |--- year >  -0.34
|   |   |   |   |   |   |--- mileage <= -0.34
|   |   |   |   |   |   |   |--- transmission_Manual <= 0.50
|   |   |   |   |   |   |   |   |--- mileage <= -0.56
|   |   |   |   |   |   |   |   |   |--- transmission_Semi-Auto <= 0.50
|   |   |   |   |   |   |   |   |   |   |--- value: [13820.71]
|   |   |   |   |   |   |   |   |   |--- transmission_Semi-Auto >  0.50
|   |   |   |   |   |   |   |   |   |   |--- value: [12684.00]
|   |   |   |   |   |   |   |   |--- mileage >  -0.56
|   |   |   |   |   |   |   |   |   |--- engineSize <= -0.72
|   |   |   |   |   |   |   |   |   |   |--- value: [12007.76]
|   |   |   |   |   |   |   |   |   |--- engineSize >  -0.72
|   |   |   |   |   |   |   |   |   |   |--- value: [13121.20]
|   |   |   |   |   |   |   |--- transmission_Manual >  0.50
|   |   |   |   |   |   |   |   |--- mileage <= -0.42
|   |   |   |   |   |   |   |   |   |--- mileage <= -0.47
|   |   |   |   |   |   |   |   |   |   |--- value: [11949.56]
|   |   |   |   |   |   |   |   |   |--- mileage >  -0.47
|   |   |   |   |   |   |   |   |   |   |--- value: [12438.51]
|   |   |   |   |   |   |   |   |--- mileage >  -0.42
|   |   |   |   |   |   |   |   |   |--- engineSize <= -0.72
|   |   |   |   |   |   |   |   |   |   |--- value: [11296.25]
|   |   |   |   |   |   |   |   |   |--- engineSize >  -0.72
|   |   |   |   |   |   |   |   |   |   |--- value: [12122.82]
|   |   |   |   |   |   |--- mileage >  -0.34
|   |   |   |   |   |   |   |--- mileage <= 0.51
|   |   |   |   |   |   |   |   |--- transmission_Manual <= 0.50
|   |   |   |   |   |   |   |   |   |--- mileage <= 0.28
|   |   |   |   |   |   |   |   |   |   |--- value: [12086.82]
|   |   |   |   |   |   |   |   |   |--- mileage >  0.28
|   |   |   |   |   |   |   |   |   |   |--- value: [11073.33]
|   |   |   |   |   |   |   |   |--- transmission_Manual >  0.50
|   |   |   |   |   |   |   |   |   |--- engineSize <= -0.72
|   |   |   |   |   |   |   |   |   |   |--- value: [10913.83]
|   |   |   |   |   |   |   |   |   |--- engineSize >  -0.72
|   |   |   |   |   |   |   |   |   |   |--- value: [11350.25]
|   |   |   |   |   |   |   |--- mileage >  0.51
|   |   |   |   |   |   |   |   |--- mileage <= 0.99
|   |   |   |   |   |   |   |   |   |--- engineSize <= -0.72
|   |   |   |   |   |   |   |   |   |   |--- value: [9885.52]
|   |   |   |   |   |   |   |   |   |--- engineSize >  -0.72
|   |   |   |   |   |   |   |   |   |   |--- value: [10815.89]
|   |   |   |   |   |   |   |   |--- mileage >  0.99
|   |   |   |   |   |   |   |   |   |--- mileage <= 1.49
|   |   |   |   |   |   |   |   |   |   |--- value: [9892.14]
|   |   |   |   |   |   |   |   |   |--- mileage >  1.49
|   |   |   |   |   |   |   |   |   |   |--- value: [8679.56]
|   |   |   |--- engineSize >  0.28
|   |   |   |   |--- engineSize <= 0.92
|   |   |   |   |   |--- mileage <= 0.10
|   |   |   |   |   |   |--- mileage <= -0.22
|   |   |   |   |   |   |   |--- year <= -0.34
|   |   |   |   |   |   |   |   |--- transmission_Semi-Auto <= 0.50
|   |   |   |   |   |   |   |   |   |--- mileage <= -0.28
|   |   |   |   |   |   |   |   |   |   |--- value: [15790.45]
|   |   |   |   |   |   |   |   |   |--- mileage >  -0.28
|   |   |   |   |   |   |   |   |   |   |--- value: [17183.20]
|   |   |   |   |   |   |   |   |--- transmission_Semi-Auto >  0.50
|   |   |   |   |   |   |   |   |   |--- value: [12200.00]
|   |   |   |   |   |   |   |--- year >  -0.34
|   |   |   |   |   |   |   |   |--- fuelType_Petrol <= 0.50
|   |   |   |   |   |   |   |   |   |--- transmission_Semi-Auto <= 0.50
|   |   |   |   |   |   |   |   |   |   |--- value: [17042.59]
|   |   |   |   |   |   |   |   |   |--- transmission_Semi-Auto >  0.50
|   |   |   |   |   |   |   |   |   |   |--- value: [14999.00]
|   |   |   |   |   |   |   |   |--- fuelType_Petrol >  0.50
|   |   |   |   |   |   |   |   |   |--- mileage <= -0.38
|   |   |   |   |   |   |   |   |   |   |--- value: [18405.96]
|   |   |   |   |   |   |   |   |   |--- mileage >  -0.38
|   |   |   |   |   |   |   |   |   |   |--- value: [17580.61]
|   |   |   |   |   |   |--- mileage >  -0.22
|   |   |   |   |   |   |   |--- transmission_Manual <= 0.50
|   |   |   |   |   |   |   |   |--- mileage <= 0.04
|   |   |   |   |   |   |   |   |   |--- transmission_Semi-Auto <= 0.50
|   |   |   |   |   |   |   |   |   |   |--- value: [11995.00]
|   |   |   |   |   |   |   |   |   |--- transmission_Semi-Auto >  0.50
|   |   |   |   |   |   |   |   |   |   |--- value: [12495.00]
|   |   |   |   |   |   |   |   |--- mileage >  0.04
|   |   |   |   |   |   |   |   |   |--- value: [16757.00]
|   |   |   |   |   |   |   |--- transmission_Manual >  0.50
|   |   |   |   |   |   |   |   |--- year <= -0.34
|   |   |   |   |   |   |   |   |   |--- fuelType_Petrol <= 0.50
|   |   |   |   |   |   |   |   |   |   |--- value: [14849.00]
|   |   |   |   |   |   |   |   |   |--- fuelType_Petrol >  0.50
|   |   |   |   |   |   |   |   |   |   |--- value: [16069.33]
|   |   |   |   |   |   |   |   |--- year >  -0.34
|   |   |   |   |   |   |   |   |   |--- fuelType_Petrol <= 0.50
|   |   |   |   |   |   |   |   |   |   |--- value: [16333.67]
|   |   |   |   |   |   |   |   |   |--- fuelType_Petrol >  0.50
|   |   |   |   |   |   |   |   |   |   |--- value: [16792.21]
|   |   |   |   |   |--- mileage >  0.10
|   |   |   |   |   |   |--- year <= -0.34
|   |   |   |   |   |   |   |--- mileage <= 0.95
|   |   |   |   |   |   |   |   |--- transmission_Manual <= 0.50
|   |   |   |   |   |   |   |   |   |--- value: [10500.00]
|   |   |   |   |   |   |   |   |--- transmission_Manual >  0.50
|   |   |   |   |   |   |   |   |   |--- fuelType_Petrol <= 0.50
|   |   |   |   |   |   |   |   |   |   |--- value: [13890.16]
|   |   |   |   |   |   |   |   |   |--- fuelType_Petrol >  0.50
|   |   |   |   |   |   |   |   |   |   |--- value: [14835.15]
|   |   |   |   |   |   |   |--- mileage >  0.95
|   |   |   |   |   |   |   |   |--- mileage <= 3.13
|   |   |   |   |   |   |   |   |   |--- transmission_Semi-Auto <= 0.50
|   |   |   |   |   |   |   |   |   |   |--- value: [11903.31]
|   |   |   |   |   |   |   |   |   |--- transmission_Semi-Auto >  0.50
|   |   |   |   |   |   |   |   |   |   |--- value: [9898.00]
|   |   |   |   |   |   |   |   |--- mileage >  3.13
|   |   |   |   |   |   |   |   |   |--- value: [6891.00]
|   |   |   |   |   |   |--- year >  -0.34
|   |   |   |   |   |   |   |--- mileage <= 1.21
|   |   |   |   |   |   |   |   |--- mileage <= 0.28
|   |   |   |   |   |   |   |   |   |--- mileage <= 0.20
|   |   |   |   |   |   |   |   |   |   |--- value: [16859.80]
|   |   |   |   |   |   |   |   |   |--- mileage >  0.20
|   |   |   |   |   |   |   |   |   |   |--- value: [16358.14]
|   |   |   |   |   |   |   |   |--- mileage >  0.28
|   |   |   |   |   |   |   |   |   |--- transmission_Manual <= 0.50
|   |   |   |   |   |   |   |   |   |   |--- value: [16835.40]
|   |   |   |   |   |   |   |   |   |--- transmission_Manual >  0.50
|   |   |   |   |   |   |   |   |   |   |--- value: [15429.56]
|   |   |   |   |   |   |   |--- mileage >  1.21
|   |   |   |   |   |   |   |   |--- mileage <= 1.88
|   |   |   |   |   |   |   |   |   |--- mileage <= 1.66
|   |   |   |   |   |   |   |   |   |   |--- value: [14441.00]
|   |   |   |   |   |   |   |   |   |--- mileage >  1.66
|   |   |   |   |   |   |   |   |   |   |--- value: [13295.00]
|   |   |   |   |   |   |   |   |--- mileage >  1.88
|   |   |   |   |   |   |   |   |   |--- value: [11490.00]
|   |   |   |   |--- engineSize >  0.92
|   |   |   |   |   |--- mileage <= -0.30
|   |   |   |   |   |   |--- year <= -0.34
|   |   |   |   |   |   |   |--- value: [25000.00]
|   |   |   |   |   |   |--- year >  -0.34
|   |   |   |   |   |   |   |--- mileage <= -0.58
|   |   |   |   |   |   |   |   |--- mileage <= -0.86
|   |   |   |   |   |   |   |   |   |--- value: [27497.00]
|   |   |   |   |   |   |   |   |--- mileage >  -0.86
|   |   |   |   |   |   |   |   |   |--- value: [26990.00]
|   |   |   |   |   |   |   |--- mileage >  -0.58
|   |   |   |   |   |   |   |   |--- mileage <= -0.39
|   |   |   |   |   |   |   |   |   |--- value: [25990.00]
|   |   |   |   |   |   |   |   |--- mileage >  -0.39
|   |   |   |   |   |   |   |   |   |--- value: [26900.00]
|   |   |   |   |   |--- mileage >  -0.30
|   |   |   |   |   |   |--- mileage <= 0.28
|   |   |   |   |   |   |   |--- mileage <= -0.22
|   |   |   |   |   |   |   |   |--- value: [22992.00]
|   |   |   |   |   |   |   |--- mileage >  -0.22
|   |   |   |   |   |   |   |   |--- year <= -0.34
|   |   |   |   |   |   |   |   |   |--- value: [23997.00]
|   |   |   |   |   |   |   |   |--- year >  -0.34
|   |   |   |   |   |   |   |   |   |--- value: [24990.00]
|   |   |   |   |   |   |--- mileage >  0.28
|   |   |   |   |   |   |   |--- year <= -0.34
|   |   |   |   |   |   |   |   |--- value: [22390.00]
|   |   |   |   |   |   |   |--- year >  -0.34
|   |   |   |   |   |   |   |   |--- value: [22000.00]
|   |--- year >  0.13
|   |   |--- engineSize <= 0.92
|   |   |   |--- year <= 0.60
|   |   |   |   |--- engineSize <= 0.19
|   |   |   |   |   |--- mileage <= -0.36
|   |   |   |   |   |   |--- engineSize <= -0.72
|   |   |   |   |   |   |   |--- mileage <= -0.81
|   |   |   |   |   |   |   |   |--- mileage <= -0.82
|   |   |   |   |   |   |   |   |   |--- transmission_Semi-Auto <= 0.50
|   |   |   |   |   |   |   |   |   |   |--- value: [15148.83]
|   |   |   |   |   |   |   |   |   |--- transmission_Semi-Auto >  0.50
|   |   |   |   |   |   |   |   |   |   |--- value: [13499.50]
|   |   |   |   |   |   |   |   |--- mileage >  -0.82
|   |   |   |   |   |   |   |   |   |--- value: [17900.00]
|   |   |   |   |   |   |   |--- mileage >  -0.81
|   |   |   |   |   |   |   |   |--- mileage <= -0.41
|   |   |   |   |   |   |   |   |   |--- mileage <= -0.47
|   |   |   |   |   |   |   |   |   |   |--- value: [13672.39]
|   |   |   |   |   |   |   |   |   |--- mileage >  -0.47
|   |   |   |   |   |   |   |   |   |   |--- value: [13027.49]
|   |   |   |   |   |   |   |   |--- mileage >  -0.41
|   |   |   |   |   |   |   |   |   |--- mileage <= -0.41
|   |   |   |   |   |   |   |   |   |   |--- value: [17491.25]
|   |   |   |   |   |   |   |   |   |--- mileage >  -0.41
|   |   |   |   |   |   |   |   |   |   |--- value: [13596.20]
|   |   |   |   |   |   |--- engineSize >  -0.72
|   |   |   |   |   |   |   |--- transmission_Manual <= 0.50
|   |   |   |   |   |   |   |   |--- transmission_Semi-Auto <= 0.50
|   |   |   |   |   |   |   |   |   |--- fuelType_Petrol <= 0.50
|   |   |   |   |   |   |   |   |   |   |--- value: [16974.86]
|   |   |   |   |   |   |   |   |   |--- fuelType_Petrol >  0.50
|   |   |   |   |   |   |   |   |   |   |--- value: [17975.00]
|   |   |   |   |   |   |   |   |--- transmission_Semi-Auto >  0.50
|   |   |   |   |   |   |   |   |   |--- value: [13489.00]
|   |   |   |   |   |   |   |--- transmission_Manual >  0.50
|   |   |   |   |   |   |   |   |--- mileage <= -0.54
|   |   |   |   |   |   |   |   |   |--- mileage <= -0.96
|   |   |   |   |   |   |   |   |   |   |--- value: [18300.00]
|   |   |   |   |   |   |   |   |   |--- mileage >  -0.96
|   |   |   |   |   |   |   |   |   |   |--- value: [15402.24]
|   |   |   |   |   |   |   |   |--- mileage >  -0.54
|   |   |   |   |   |   |   |   |   |--- fuelType_Petrol <= 0.50
|   |   |   |   |   |   |   |   |   |   |--- value: [13801.60]
|   |   |   |   |   |   |   |   |   |--- fuelType_Petrol >  0.50
|   |   |   |   |   |   |   |   |   |   |--- value: [14814.67]
|   |   |   |   |   |--- mileage >  -0.36
|   |   |   |   |   |   |--- mileage <= 0.01
|   |   |   |   |   |   |   |--- transmission_Manual <= 0.50
|   |   |   |   |   |   |   |   |--- mileage <= -0.35
|   |   |   |   |   |   |   |   |   |--- value: [12539.00]
|   |   |   |   |   |   |   |   |--- mileage >  -0.35
|   |   |   |   |   |   |   |   |   |--- mileage <= -0.25
|   |   |   |   |   |   |   |   |   |   |--- value: [15096.86]
|   |   |   |   |   |   |   |   |   |--- mileage >  -0.25
|   |   |   |   |   |   |   |   |   |   |--- value: [14343.85]
|   |   |   |   |   |   |   |--- transmission_Manual >  0.50
|   |   |   |   |   |   |   |   |--- fuelType_Petrol <= 0.50
|   |   |   |   |   |   |   |   |   |--- mileage <= -0.07
|   |   |   |   |   |   |   |   |   |   |--- value: [13659.82]
|   |   |   |   |   |   |   |   |   |--- mileage >  -0.07
|   |   |   |   |   |   |   |   |   |   |--- value: [14488.00]
|   |   |   |   |   |   |   |   |--- fuelType_Petrol >  0.50
|   |   |   |   |   |   |   |   |   |--- mileage <= -0.18
|   |   |   |   |   |   |   |   |   |   |--- value: [13023.11]
|   |   |   |   |   |   |   |   |   |--- mileage >  -0.18
|   |   |   |   |   |   |   |   |   |   |--- value: [12645.53]
|   |   |   |   |   |   |--- mileage >  0.01
|   |   |   |   |   |   |   |--- mileage <= 1.05
|   |   |   |   |   |   |   |   |--- mileage <= 0.01
|   |   |   |   |   |   |   |   |   |--- mileage <= 0.01
|   |   |   |   |   |   |   |   |   |   |--- value: [10443.00]
|   |   |   |   |   |   |   |   |   |--- mileage >  0.01
|   |   |   |   |   |   |   |   |   |   |--- value: [10700.00]
|   |   |   |   |   |   |   |   |--- mileage >  0.01
|   |   |   |   |   |   |   |   |   |--- fuelType_Petrol <= 0.50
|   |   |   |   |   |   |   |   |   |   |--- value: [12645.59]
|   |   |   |   |   |   |   |   |   |--- fuelType_Petrol >  0.50
|   |   |   |   |   |   |   |   |   |   |--- value: [12113.31]
|   |   |   |   |   |   |   |--- mileage >  1.05
|   |   |   |   |   |   |   |   |--- fuelType_Petrol <= 0.50
|   |   |   |   |   |   |   |   |   |--- value: [9980.00]
|   |   |   |   |   |   |   |   |--- fuelType_Petrol >  0.50
|   |   |   |   |   |   |   |   |   |--- mileage <= 1.13
|   |   |   |   |   |   |   |   |   |   |--- value: [10300.00]
|   |   |   |   |   |   |   |   |   |--- mileage >  1.13
|   |   |   |   |   |   |   |   |   |   |--- value: [10973.85]
|   |   |   |   |--- engineSize >  0.19
|   |   |   |   |   |--- mileage <= -0.03
|   |   |   |   |   |   |--- mileage <= -0.72
|   |   |   |   |   |   |   |--- mileage <= -0.89
|   |   |   |   |   |   |   |   |--- mileage <= -0.96
|   |   |   |   |   |   |   |   |   |--- value: [18890.00]
|   |   |   |   |   |   |   |   |--- mileage >  -0.96
|   |   |   |   |   |   |   |   |   |--- mileage <= -0.92
|   |   |   |   |   |   |   |   |   |   |--- value: [16950.00]
|   |   |   |   |   |   |   |   |   |--- mileage >  -0.92
|   |   |   |   |   |   |   |   |   |   |--- value: [18680.00]
|   |   |   |   |   |   |   |--- mileage >  -0.89
|   |   |   |   |   |   |   |   |--- mileage <= -0.87
|   |   |   |   |   |   |   |   |   |--- mileage <= -0.88
|   |   |   |   |   |   |   |   |   |   |--- value: [21798.00]
|   |   |   |   |   |   |   |   |   |--- mileage >  -0.88
|   |   |   |   |   |   |   |   |   |   |--- value: [21450.00]
|   |   |   |   |   |   |   |   |--- mileage >  -0.87
|   |   |   |   |   |   |   |   |   |--- mileage <= -0.75
|   |   |   |   |   |   |   |   |   |   |--- value: [19631.50]
|   |   |   |   |   |   |   |   |   |--- mileage >  -0.75
|   |   |   |   |   |   |   |   |   |   |--- value: [20868.00]
|   |   |   |   |   |   |--- mileage >  -0.72
|   |   |   |   |   |   |   |--- fuelType_Petrol <= 0.50
|   |   |   |   |   |   |   |   |--- transmission_Manual <= 0.50
|   |   |   |   |   |   |   |   |   |--- mileage <= -0.51
|   |   |   |   |   |   |   |   |   |   |--- value: [19717.00]
|   |   |   |   |   |   |   |   |   |--- mileage >  -0.51
|   |   |   |   |   |   |   |   |   |   |--- value: [18745.00]
|   |   |   |   |   |   |   |   |--- transmission_Manual >  0.50
|   |   |   |   |   |   |   |   |   |--- mileage <= -0.55
|   |   |   |   |   |   |   |   |   |   |--- value: [17817.88]
|   |   |   |   |   |   |   |   |   |--- mileage >  -0.55
|   |   |   |   |   |   |   |   |   |   |--- value: [18538.04]
|   |   |   |   |   |   |   |--- fuelType_Petrol >  0.50
|   |   |   |   |   |   |   |   |--- mileage <= -0.40
|   |   |   |   |   |   |   |   |   |--- mileage <= -0.50
|   |   |   |   |   |   |   |   |   |   |--- value: [18723.29]
|   |   |   |   |   |   |   |   |   |--- mileage >  -0.50
|   |   |   |   |   |   |   |   |   |   |--- value: [19319.61]
|   |   |   |   |   |   |   |   |--- mileage >  -0.40
|   |   |   |   |   |   |   |   |   |--- mileage <= -0.33
|   |   |   |   |   |   |   |   |   |   |--- value: [18026.70]
|   |   |   |   |   |   |   |   |   |--- mileage >  -0.33
|   |   |   |   |   |   |   |   |   |   |--- value: [18686.57]
|   |   |   |   |   |--- mileage >  -0.03
|   |   |   |   |   |   |--- mileage <= 0.34
|   |   |   |   |   |   |   |--- mileage <= 0.02
|   |   |   |   |   |   |   |   |--- mileage <= -0.03
|   |   |   |   |   |   |   |   |   |--- mileage <= -0.03
|   |   |   |   |   |   |   |   |   |   |--- value: [17400.00]
|   |   |   |   |   |   |   |   |   |--- mileage >  -0.03
|   |   |   |   |   |   |   |   |   |   |--- value: [18500.00]
|   |   |   |   |   |   |   |   |--- mileage >  -0.03
|   |   |   |   |   |   |   |   |   |--- mileage <= -0.02
|   |   |   |   |   |   |   |   |   |   |--- value: [16900.00]
|   |   |   |   |   |   |   |   |   |--- mileage >  -0.02
|   |   |   |   |   |   |   |   |   |   |--- value: [15999.00]
|   |   |   |   |   |   |   |--- mileage >  0.02
|   |   |   |   |   |   |   |   |--- mileage <= 0.07
|   |   |   |   |   |   |   |   |   |--- mileage <= 0.05
|   |   |   |   |   |   |   |   |   |   |--- value: [18998.00]
|   |   |   |   |   |   |   |   |   |--- mileage >  0.05
|   |   |   |   |   |   |   |   |   |   |--- value: [18500.00]
|   |   |   |   |   |   |   |   |--- mileage >  0.07
|   |   |   |   |   |   |   |   |   |--- mileage <= 0.30
|   |   |   |   |   |   |   |   |   |   |--- value: [17574.17]
|   |   |   |   |   |   |   |   |   |--- mileage >  0.30
|   |   |   |   |   |   |   |   |   |   |--- value: [18499.00]
|   |   |   |   |   |   |--- mileage >  0.34
|   |   |   |   |   |   |   |--- transmission_Semi-Auto <= 0.50
|   |   |   |   |   |   |   |   |--- mileage <= 0.57
|   |   |   |   |   |   |   |   |   |--- mileage <= 0.36
|   |   |   |   |   |   |   |   |   |   |--- value: [15995.00]
|   |   |   |   |   |   |   |   |   |--- mileage >  0.36
|   |   |   |   |   |   |   |   |   |   |--- value: [16996.50]
|   |   |   |   |   |   |   |   |--- mileage >  0.57
|   |   |   |   |   |   |   |   |   |--- mileage <= 0.86
|   |   |   |   |   |   |   |   |   |   |--- value: [15498.00]
|   |   |   |   |   |   |   |   |   |--- mileage >  0.86
|   |   |   |   |   |   |   |   |   |   |--- value: [15780.50]
|   |   |   |   |   |   |   |--- transmission_Semi-Auto >  0.50
|   |   |   |   |   |   |   |   |--- value: [17495.00]
|   |   |   |--- year >  0.60
|   |   |   |   |--- engineSize <= -0.72
|   |   |   |   |   |--- mileage <= -0.82
|   |   |   |   |   |   |--- year <= 1.06
|   |   |   |   |   |   |   |--- mileage <= -0.95
|   |   |   |   |   |   |   |   |--- mileage <= -1.06
|   |   |   |   |   |   |   |   |   |--- mileage <= -1.06
|   |   |   |   |   |   |   |   |   |   |--- value: [15590.00]
|   |   |   |   |   |   |   |   |   |--- mileage >  -1.06
|   |   |   |   |   |   |   |   |   |   |--- value: [16479.00]
|   |   |   |   |   |   |   |   |--- mileage >  -1.06
|   |   |   |   |   |   |   |   |   |--- mileage <= -1.02
|   |   |   |   |   |   |   |   |   |   |--- value: [18375.56]
|   |   |   |   |   |   |   |   |   |--- mileage >  -1.02
|   |   |   |   |   |   |   |   |   |   |--- value: [17803.10]
|   |   |   |   |   |   |   |--- mileage >  -0.95
|   |   |   |   |   |   |   |   |--- mileage <= -0.90
|   |   |   |   |   |   |   |   |   |--- engineSize <= -2.09
|   |   |   |   |   |   |   |   |   |   |--- value: [19999.00]
|   |   |   |   |   |   |   |   |   |--- engineSize >  -2.09
|   |   |   |   |   |   |   |   |   |   |--- value: [17283.77]
|   |   |   |   |   |   |   |   |--- mileage >  -0.90
|   |   |   |   |   |   |   |   |   |--- mileage <= -0.89
|   |   |   |   |   |   |   |   |   |   |--- value: [16210.00]
|   |   |   |   |   |   |   |   |   |--- mileage >  -0.89
|   |   |   |   |   |   |   |   |   |   |--- value: [17138.74]
|   |   |   |   |   |   |--- year >  1.06
|   |   |   |   |   |   |   |--- mileage <= -1.06
|   |   |   |   |   |   |   |   |--- mileage <= -1.06
|   |   |   |   |   |   |   |   |   |--- transmission_Manual <= 0.50
|   |   |   |   |   |   |   |   |   |   |--- value: [20999.00]
|   |   |   |   |   |   |   |   |   |--- transmission_Manual >  0.50
|   |   |   |   |   |   |   |   |   |   |--- value: [18900.00]
|   |   |   |   |   |   |   |   |--- mileage >  -1.06
|   |   |   |   |   |   |   |   |   |--- value: [21000.00]
|   |   |   |   |   |   |   |--- mileage >  -1.06
|   |   |   |   |   |   |   |   |--- mileage <= -1.06
|   |   |   |   |   |   |   |   |   |--- value: [18625.00]
|   |   |   |   |   |   |   |   |--- mileage >  -1.06
|   |   |   |   |   |   |   |   |   |--- mileage <= -1.03
|   |   |   |   |   |   |   |   |   |   |--- value: [20742.50]
|   |   |   |   |   |   |   |   |   |--- mileage >  -1.03
|   |   |   |   |   |   |   |   |   |   |--- value: [19392.90]
|   |   |   |   |   |--- mileage >  -0.82
|   |   |   |   |   |   |--- year <= 1.06
|   |   |   |   |   |   |   |--- mileage <= -0.60
|   |   |   |   |   |   |   |   |--- mileage <= -0.64
|   |   |   |   |   |   |   |   |   |--- mileage <= -0.64
|   |   |   |   |   |   |   |   |   |   |--- value: [16422.81]
|   |   |   |   |   |   |   |   |   |--- mileage >  -0.64
|   |   |   |   |   |   |   |   |   |   |--- value: [15193.33]
|   |   |   |   |   |   |   |   |--- mileage >  -0.64
|   |   |   |   |   |   |   |   |   |--- mileage <= -0.63
|   |   |   |   |   |   |   |   |   |   |--- value: [17434.46]
|   |   |   |   |   |   |   |   |   |--- mileage >  -0.63
|   |   |   |   |   |   |   |   |   |   |--- value: [16320.28]
|   |   |   |   |   |   |   |--- mileage >  -0.60
|   |   |   |   |   |   |   |   |--- transmission_Manual <= 0.50
|   |   |   |   |   |   |   |   |   |--- mileage <= -0.19
|   |   |   |   |   |   |   |   |   |   |--- value: [16770.83]
|   |   |   |   |   |   |   |   |   |--- mileage >  -0.19
|   |   |   |   |   |   |   |   |   |   |--- value: [14450.00]
|   |   |   |   |   |   |   |   |--- transmission_Manual >  0.50
|   |   |   |   |   |   |   |   |   |--- mileage <= -0.39
|   |   |   |   |   |   |   |   |   |   |--- value: [15779.46]
|   |   |   |   |   |   |   |   |   |--- mileage >  -0.39
|   |   |   |   |   |   |   |   |   |   |--- value: [16244.56]
|   |   |   |   |   |   |--- year >  1.06
|   |   |   |   |   |   |   |--- mileage <= -0.79
|   |   |   |   |   |   |   |   |--- value: [18495.00]
|   |   |   |   |   |   |   |--- mileage >  -0.79
|   |   |   |   |   |   |   |   |--- value: [23995.00]
|   |   |   |   |--- engineSize >  -0.72
|   |   |   |   |   |--- mileage <= -0.56
|   |   |   |   |   |   |--- engineSize <= 0.19
|   |   |   |   |   |   |   |--- year <= 1.06
|   |   |   |   |   |   |   |   |--- transmission_Manual <= 0.50
|   |   |   |   |   |   |   |   |   |--- mileage <= -0.70
|   |   |   |   |   |   |   |   |   |   |--- value: [19484.47]
|   |   |   |   |   |   |   |   |   |--- mileage >  -0.70
|   |   |   |   |   |   |   |   |   |   |--- value: [18917.00]
|   |   |   |   |   |   |   |   |--- transmission_Manual >  0.50
|   |   |   |   |   |   |   |   |   |--- fuelType_Petrol <= 0.50
|   |   |   |   |   |   |   |   |   |   |--- value: [17733.98]
|   |   |   |   |   |   |   |   |   |--- fuelType_Petrol >  0.50
|   |   |   |   |   |   |   |   |   |   |--- value: [19270.41]
|   |   |   |   |   |   |   |--- year >  1.06
|   |   |   |   |   |   |   |   |--- fuelType_Petrol <= 0.50
|   |   |   |   |   |   |   |   |   |--- mileage <= -1.05
|   |   |   |   |   |   |   |   |   |   |--- value: [22156.33]
|   |   |   |   |   |   |   |   |   |--- mileage >  -1.05
|   |   |   |   |   |   |   |   |   |   |--- value: [20169.09]
|   |   |   |   |   |   |   |   |--- fuelType_Petrol >  0.50
|   |   |   |   |   |   |   |   |   |--- transmission_Manual <= 0.50
|   |   |   |   |   |   |   |   |   |   |--- value: [25999.80]
|   |   |   |   |   |   |   |   |   |--- transmission_Manual >  0.50
|   |   |   |   |   |   |   |   |   |   |--- value: [22516.33]
|   |   |   |   |   |   |--- engineSize >  0.19
|   |   |   |   |   |   |   |--- mileage <= -0.82
|   |   |   |   |   |   |   |   |--- transmission_Manual <= 0.50
|   |   |   |   |   |   |   |   |   |--- mileage <= -0.83
|   |   |   |   |   |   |   |   |   |   |--- value: [20372.16]
|   |   |   |   |   |   |   |   |   |--- mileage >  -0.83
|   |   |   |   |   |   |   |   |   |   |--- value: [22000.00]
|   |   |   |   |   |   |   |   |--- transmission_Manual >  0.50
|   |   |   |   |   |   |   |   |   |--- mileage <= -0.91
|   |   |   |   |   |   |   |   |   |   |--- value: [18266.00]
|   |   |   |   |   |   |   |   |   |--- mileage >  -0.91
|   |   |   |   |   |   |   |   |   |   |--- value: [23781.00]
|   |   |   |   |   |   |   |--- mileage >  -0.82
|   |   |   |   |   |   |   |   |--- mileage <= -0.80
|   |   |   |   |   |   |   |   |   |--- mileage <= -0.82
|   |   |   |   |   |   |   |   |   |   |--- value: [15790.00]
|   |   |   |   |   |   |   |   |   |--- mileage >  -0.82
|   |   |   |   |   |   |   |   |   |   |--- value: [18099.50]
|   |   |   |   |   |   |   |   |--- mileage >  -0.80
|   |   |   |   |   |   |   |   |   |--- mileage <= -0.60
|   |   |   |   |   |   |   |   |   |   |--- value: [20085.08]
|   |   |   |   |   |   |   |   |   |--- mileage >  -0.60
|   |   |   |   |   |   |   |   |   |   |--- value: [23145.00]
|   |   |   |   |   |--- mileage >  -0.56
|   |   |   |   |   |   |--- engineSize <= 0.19
|   |   |   |   |   |   |   |--- transmission_Manual <= 0.50
|   |   |   |   |   |   |   |   |--- mileage <= -0.28
|   |   |   |   |   |   |   |   |   |--- mileage <= -0.48
|   |   |   |   |   |   |   |   |   |   |--- value: [18851.80]
|   |   |   |   |   |   |   |   |   |--- mileage >  -0.48
|   |   |   |   |   |   |   |   |   |   |--- value: [16909.00]
|   |   |   |   |   |   |   |   |--- mileage >  -0.28
|   |   |   |   |   |   |   |   |   |--- fuelType_Petrol <= 0.50
|   |   |   |   |   |   |   |   |   |   |--- value: [18000.00]
|   |   |   |   |   |   |   |   |   |--- fuelType_Petrol >  0.50
|   |   |   |   |   |   |   |   |   |   |--- value: [23000.00]
|   |   |   |   |   |   |   |--- transmission_Manual >  0.50
|   |   |   |   |   |   |   |   |--- mileage <= -0.11
|   |   |   |   |   |   |   |   |   |--- fuelType_Petrol <= 0.50
|   |   |   |   |   |   |   |   |   |   |--- value: [16154.39]
|   |   |   |   |   |   |   |   |   |--- fuelType_Petrol >  0.50
|   |   |   |   |   |   |   |   |   |   |--- value: [17512.70]
|   |   |   |   |   |   |   |   |--- mileage >  -0.11
|   |   |   |   |   |   |   |   |   |--- mileage <= 0.12
|   |   |   |   |   |   |   |   |   |   |--- value: [14300.00]
|   |   |   |   |   |   |   |   |   |--- mileage >  0.12
|   |   |   |   |   |   |   |   |   |   |--- value: [13250.00]
|   |   |   |   |   |   |--- engineSize >  0.19
|   |   |   |   |   |   |   |--- mileage <= -0.38
|   |   |   |   |   |   |   |   |--- mileage <= -0.47
|   |   |   |   |   |   |   |   |   |--- mileage <= -0.51
|   |   |   |   |   |   |   |   |   |   |--- value: [18496.50]
|   |   |   |   |   |   |   |   |   |--- mileage >  -0.51
|   |   |   |   |   |   |   |   |   |   |--- value: [17890.00]
|   |   |   |   |   |   |   |   |--- mileage >  -0.47
|   |   |   |   |   |   |   |   |   |--- transmission_Manual <= 0.50
|   |   |   |   |   |   |   |   |   |   |--- value: [20646.67]
|   |   |   |   |   |   |   |   |   |--- transmission_Manual >  0.50
|   |   |   |   |   |   |   |   |   |   |--- value: [25995.00]
|   |   |   |   |   |   |   |--- mileage >  -0.38
|   |   |   |   |   |   |   |   |--- transmission_Manual <= 0.50
|   |   |   |   |   |   |   |   |   |--- mileage <= -0.29
|   |   |   |   |   |   |   |   |   |   |--- value: [19320.00]
|   |   |   |   |   |   |   |   |   |--- mileage >  -0.29
|   |   |   |   |   |   |   |   |   |   |--- value: [18899.00]
|   |   |   |   |   |   |   |   |--- transmission_Manual >  0.50
|   |   |   |   |   |   |   |   |   |--- value: [16798.00]
|   |   |--- engineSize >  0.92
|   |   |   |--- mileage <= -0.57
|   |   |   |   |--- mileage <= -0.88
|   |   |   |   |   |--- mileage <= -1.05
|   |   |   |   |   |   |--- value: [25950.00]
|   |   |   |   |   |--- mileage >  -1.05
|   |   |   |   |   |   |--- mileage <= -0.92
|   |   |   |   |   |   |   |--- mileage <= -1.01
|   |   |   |   |   |   |   |   |--- mileage <= -1.04
|   |   |   |   |   |   |   |   |   |--- year <= 1.06
|   |   |   |   |   |   |   |   |   |   |--- value: [26500.00]
|   |   |   |   |   |   |   |   |   |--- year >  1.06
|   |   |   |   |   |   |   |   |   |   |--- value: [29000.00]
|   |   |   |   |   |   |   |   |--- mileage >  -1.04
|   |   |   |   |   |   |   |   |   |--- mileage <= -1.03
|   |   |   |   |   |   |   |   |   |   |--- value: [29850.00]
|   |   |   |   |   |   |   |   |   |--- mileage >  -1.03
